2278 100
STORE -0.1717179 -0.11789766 0.13836478 0.028432991 0.3879471 -0.116587825 0.42387915 -0.25043687 0.1944129 -0.063157864 0.019757004 -0.14009783 0.25222957 -0.4236136 0.42511356 -0.29732603 0.34257397 0.10540647 -0.38009042 -0.16128176 -0.015381891 0.1289966 -0.4255581 0.18154715 0.028728489 0.13042419 -0.0911547 -0.4108752 0.07152857 -0.10923271 0.52158374 0.19086514 0.011475612 0.46896818 -0.55211747 -0.34466884 0.16674323 -0.15822625 -0.024080822 0.00158353 0.02289013 -0.41836134 0.08798292 -0.34652495 -0.16069072 0.11452056 0.10309018 -0.1622128 -0.2839688 0.16935615 -0.09534981 0.26088968 -0.19245775 0.22197911 -0.5714123 -0.008449408 0.1788963 -0.27311313 -0.05811119 0.08292795 -0.04789944 -0.13422792 -0.19949219 0.4448338 -0.10484601 0.116519235 0.14726114 0.26568913 0.0075261905 0.49335715 -0.2586976 0.3934931 -0.32128036 0.050426096 -0.042700708 -0.34509575 -0.27967712 0.0628111 0.16021766 -0.23147653 0.04704285 -0.18610366 0.034903627 -0.14381406 -0.10237438 0.4060462 0.108830094 0.11311358 -0.05366892 0.007483941 -0.14562716 -0.0803705 0.45181698 -0.025384484 -0.30465412 -0.33895257 0.038739678 -0.281363 -0.4481848 -0.26009408
CO -0.049031258 -0.4657613 0.5131509 -0.2747413 -0.46862054 0.20150769 0.32187852 -0.16817126 0.35507998 -0.10537724 0.19658563 0.54674375 -0.6519685 -0.31419644 -0.08750264 0.17395005 0.84313715 -0.34990653 0.04588388 0.25556943 0.5187388 -0.26524368 -0.6090825 0.18466069 0.28073648 0.7834472 0.13278851 0.6014678 0.39816806 -1.1978521 -0.40575597 0.3744075 1.0174913 0.16468307 0.87209874 -0.031642295 -0.047954343 -1.2430493 0.24617359 -0.26464325 0.5981139 -0.11631617 -0.48308992 -0.25625974 -0.21630259 0.029399792 0.29590353 -0.46227536 -0.3549423 0.037968595 -0.66208744 -0.0890645 0.5266358 0.7406783 0.9871558 0.19066285 0.28525817 0.4180563 0.07501822 1.3603799 -0.16230509 -0.3972003 -0.54206103 0.8726849 0.8387064 0.6684491 0.13946757 -0.8033551 0.7356545 -0.8640432 -0.31033722 -0.7913254 0.21606664 0.53246677 0.29170042 0.000948166 0.820656 -0.50283647 -0.17513444 -0.2234934 -0.45286694 0.70279926 0.35101676 -0.3427651 -0.3529924 0.26391178 -0.6307568 -0.5520069 -0.33968294 -0.08156065 0.22757123 -0.3259879 0.46980846 -0.88547695 -0.5074005 0.0874897 -0.9207132 0.34727195 -0.5844885 1.3000852
TESCO 0.17195804 0.063445166 0.026875837 -0.36708957 0.5091533 0.072944306 0.07722583 -0.08138687 0.08525308 0.059691545 -0.0027086805 0.005374255 0.008700649 -0.2540579 0.3331662 -0.016842723 0.35853574 0.029921938 -0.56600624 -0.3316349 -0.23261352 0.14508821 -0.42325315 0.21447726 -0.048999768 0.5178525 0.12410594 -0.39044365 0.069958426 0.17066847 -0.025426364 0.62336826 0.087145165 0.38597387 -0.46122837 -0.17295931 0.26443723 0.062463727 -0.10800695 0.3783079 0.02086286 -0.1934745 0.1535992 -0.13589884 -0.38868254 0.2618393 0.07000954 -0.043843444 -0.16971563 0.10247861 0.060810886 0.15900534 0.110577315 0.016120799 -0.299682 0.14662556 0.29711226 0.23871435 0.11922066 0.26646787 0.005957479 0.006133368 -0.3405617 0.24974863 -0.040699508 0.11438316 0.050320674 0.16354707 0.17523608 0.1116295 -0.06967346 0.58961636 -0.23005499 0.17472352 -0.076231465 -0.16580285 -0.049998336 -0.12895912 -0.06129378 -0.12552452 -0.13299178 0.00078997784 -0.30392545 -0.12588008 0.12336112 0.045479175 0.19881068 -0.10762569 0.015959745 -0.04876522 0.24853662 -0.15323026 0.28834945 -0.30008993 -0.068408675 -0.40251297 -0.417719 -0.22499777 -0.74859154 -0.06409887
UK -0.34117067 -0.44166785 0.55270755 -0.30946404 -0.22516353 -0.20759527 8.955483e-05 -0.11365497 0.13386367 -0.1255946 0.06549903 0.31970564 -0.5465443 -0.3162606 0.06626225 0.19164431 0.85702044 -0.33683726 0.0042963675 0.5216415 0.37307578 -0.5119547 -0.43943197 0.0762908 0.12176705 0.77912444 0.2204765 0.6722533 0.15550628 -0.8491581 -0.36275503 0.6849644 0.8643292 -0.02204908 0.8928848 -0.08486581 -0.14846915 -1.1259304 0.12513795 0.05250846 0.57725894 0.05182564 -0.31185025 -0.32335487 -0.31726056 0.03631375 0.13166419 -0.1843461 -0.30361807 -0.15229474 -0.517963 0.10642817 0.7294089 0.59640354 1.0498912 0.03247003 0.21186969 0.39539534 0.35041985 0.84765416 0.03022514 -0.512448 -0.30976957 0.42610487 0.63615686 0.5754423 -0.023725662 -0.5370365 0.42862228 -0.72779477 0.16023836 -0.9514843 0.34623396 0.2518408 0.39314395 -0.19171569 0.44133404 -0.2633182 -0.06933437 -0.23258546 -0.36165747 0.74041003 0.4144409 -0.40492898 -0.23022838 0.45488924 -0.87760067 -0.6543664 -0.18440275 -0.068788365 0.29522127 -0.9245219 0.028243748 -0.29679036 -0.6440479 -0.0190995 -0.763337 -0.011635005 -0.22126038 1.0974731
SAINSBURYS 0.11931346 0.07532178 0.13179581 -0.23150958 0.36802262 0.119686 0.08556052 -0.14301881 0.2066906 0.05893378 0.0077778096 -0.082284756 0.0050073243 -0.16666557 0.21622787 0.061280813 0.24492928 0.1534366 -0.45899776 -0.30244344 -0.089987576 0.112660624 -0.35224128 0.16954868 -0.06456139 0.31317624 0.09899909 -0.21598315 0.018156562 0.11003921 0.025779014 0.4524492 0.16678536 0.3436009 -0.26839525 -0.18018031 0.21803217 -0.061023932 -0.09189524 0.30041072 0.07636442 -0.29104915 -0.010258147 -0.22891666 -0.23635286 0.26218092 0.050307672 0.06089902 -0.08448735 0.16766801 -0.045013104 0.103617236 0.17441969 0.098291956 -0.2654302 0.23138429 0.27703854 0.14367785 0.057016075 0.17819221 -0.09298812 0.048057698 -0.31376505 0.29813078 -0.04092814 0.19934984 0.04101414 0.027120495 0.15862072 0.14251071 -0.18698256 0.48395148 -0.30223492 -0.09294069 -0.15682492 -0.09128829 0.06406376 -0.14600556 -0.018004082 -0.18170427 -0.07244554 -0.1336778 -0.17897597 -0.11490356 0.04858694 0.015329397 0.10032972 0.0760233 -0.022245992 0.008029158 0.047474295 -0.07676157 0.33754763 -0.21406817 -0.062328678 -0.38593674 -0.2774749 -0.088176765 -0.5519313 -0.03259502
COM -0.23727302 -0.50039274 -0.10280989 -0.23777764 -0.12127925 0.054654025 -0.14193927 -0.21259125 0.3868073 0.7709784 0.5970598 -0.5046994 0.12312013 0.09647874 0.038514815 -0.059997797 0.7860974 1.0148116 -0.48112115 0.41734946 -0.3853617 0.02449794 -0.40279937 -0.56633234 0.19024569 0.9865569 -0.033600833 0.5644605 0.038057096 -0.1404417 0.507888 0.02084052 0.5265436 0.9207888 0.107152805 -1.106711 -0.034946892 -0.46622872 0.5153479 -0.8461638 0.2574479 -0.3109349 0.2899253 -0.38413653 -0.05036931 0.12082245 0.1471952 -0.3411508 -0.68599975 -0.38832298 -0.26714924 0.45796266 -0.369777 0.6554744 1.0726473 0.6145141 0.39033192 0.6413195 0.1981801 0.99018115 -0.27861723 -0.21366462 -0.9135713 0.28192997 0.63512313 0.4071287 0.60580236 -0.8519927 0.73680985 -0.9965471 -0.787875 0.4164591 -0.2627262 0.24828522 -0.31971478 -0.2930017 -0.3296694 0.011788122 -0.028036257 -0.7259531 -0.38706172 0.287597 0.15871719 0.6950315 -0.5107612 0.36085087 -0.0217767 -0.5245351 0.5410695 -0.28680527 -0.17036104 0.002595368 -0.17973833 -0.09120529 -0.9353869 -0.4746836 -0.99029016 0.30505067 -0.58764917 -0.24887793
TFL -0.45208502 -0.40870166 0.3012902 0.023356218 0.35496634 -0.20314087 -0.48134422 -0.26576483 -0.22029074 -0.068473294 -0.6266442 0.3926346 -0.017574463 -0.3797744 0.8903807 -0.23456389 0.93099743 -0.31461287 -0.21739118 0.9726281 -0.6207956 -0.49694052 0.030719653 -0.164705 -0.67581314 0.6995634 0.37502977 0.6267088 0.35462022 -0.27968162 0.5063726 0.88913757 0.6041958 -0.1146934 0.8422743 -0.449102 0.10193944 -0.6906798 0.061653327 0.5747 1.055284 0.0867211 0.3919561 -0.60101205 -0.5634567 0.11125876 -0.51472044 -0.056090865 -0.3350237 -0.7236223 -0.12305413 0.6161198 0.590549 0.44210654 0.30355093 -0.06624618 0.78589123 -0.3766364 0.20113772 0.90624475 0.8146288 0.15118855 -0.46291265 0.55960363 0.1787952 0.39230302 -0.180876 -0.40346313 -0.03812321 -0.5456921 0.59319896 -0.642315 -0.041284062 -0.30657932 0.24026231 -0.31451222 -0.20059192 0.10564126 0.55866545 -0.71958566 0.03112169 0.75531036 0.7578938 -0.6516516 -0.4051015 0.864346 -1.2151159 -1.2986356 -0.8026193 0.5670952 0.67954 -1.3235675 -0.009003426 -0.13190901 -0.9655827 -0.6985005 -0.61176366 -0.5579752 -0.28618065 1.0028976
TRAVEL -0.4359045 -0.2845458 0.36005002 0.037623987 0.22998093 -0.2813024 -0.38688937 -0.11166795 -0.25036585 -0.124240436 -0.5478287 0.25193638 0.08971641 -0.33338466 0.7189523 -0.19673176 0.8145587 -0.15886022 -0.11302521 0.81649333 -0.47693843 -0.38839272 0.0040670577 -0.15569802 -0.509019 0.5839675 0.3633053 0.5288382 0.4023134 -0.20444036 0.5085959 0.8105161 0.40492076 -0.06155842 0.70447624 -0.4272008 0.12031615 -0.48848736 -0.097645804 0.39977434 0.92508966 0.07512788 0.38514966 -0.57878524 -0.5151249 0.14884128 -0.4551777 -0.0036214455 -0.26904443 -0.6066204 0.05583977 0.6066707 0.41832703 0.35483527 0.27025536 -0.105120674 0.6117551 -0.30584502 0.12800409 0.6545284 0.6948422 0.12782887 -0.41050276 0.38249424 0.015151506 0.44864175 -0.17864954 -0.33432928 -0.115576364 -0.48452213 0.54404014 -0.593063 0.051522452 -0.16484082 0.17031209 -0.25165457 -0.2536205 0.13475157 0.5546045 -0.60147667 0.052903555 0.6110063 0.62008244 -0.49408105 -0.17879167 0.68298084 -1.029977 -1.2465255 -0.70297766 0.51483 0.6076187 -1.1163332 0.11990885 -0.13253957 -0.85641944 -0.47058484 -0.40681544 -0.5212067 -0.14628546 0.7420123
CH -0.34989035 -0.2514668 0.26367852 0.058027633 0.22497943 -0.21992096 -0.37196687 -0.10585818 -0.21479054 -0.060462706 -0.47049683 0.32787564 0.057752226 -0.3607218 0.6607511 -0.17588645 0.7084407 -0.22708331 -0.18220338 0.76148224 -0.44306555 -0.35525435 0.0016776996 -0.090515375 -0.4863413 0.48010135 0.35574082 0.5283325 0.3092434 -0.23523971 0.39883748 0.7233112 0.38386434 -0.087483585 0.65976423 -0.37752667 0.091486156 -0.46552074 -0.034417856 0.4490867 0.83071023 0.055208705 0.3729299 -0.49729732 -0.45485136 0.11208527 -0.4222381 0.01974572 -0.29409292 -0.62589246 0.022076521 0.5296392 0.45915267 0.39042398 0.26456812 -0.055061337 0.56496865 -0.29632685 0.15672044 0.68762237 0.64088154 0.119954 -0.35646474 0.36445245 0.034913998 0.38790813 -0.18758777 -0.30264202 -0.062474214 -0.4646661 0.5243247 -0.53187126 -0.0033972664 -0.19174999 0.17189164 -0.18260084 -0.17908601 0.11944993 0.4711463 -0.54698175 0.084262066 0.6087982 0.55021393 -0.51984316 -0.2769057 0.6740397 -0.91784096 -1.1072707 -0.60899216 0.45177037 0.5767205 -1.0551527 0.009588089 -0.17525904 -0.76775646 -0.51469076 -0.39566904 -0.4464142 -0.13459617 0.7543906
PAYPAL 0.059036974 -0.2606231 -0.120810196 -0.15169463 -0.074064866 -0.005585106 0.18642373 -0.21891265 -0.101609655 0.16022861 -0.06699981 0.15853032 -0.07535001 -0.11972822 0.3776898 0.15994921 0.18080097 0.44541484 -0.016524548 0.010055995 0.0137868775 0.106199615 0.10661219 -0.35661125 0.14963832 0.41025394 0.017697642 -0.14768313 0.10215609 0.43405896 0.15352425 -0.2315341 -0.06790745 0.27909085 0.2667568 0.095984474 0.0964111 0.068949156 -0.065178394 0.010947301 0.2123118 -0.2629388 -0.24760748 -0.030745734 0.28376395 -0.26650143 0.07348062 0.033471934 -0.22212362 0.10773879 0.16381855 -0.13272081 -0.29064432 -0.18096235 -0.23108612 0.41358727 0.039398193 -0.081309274 -0.05149931 -0.086482696 -0.09415522 0.020344133 -0.25373405 0.41182855 0.16579191 -0.2758124 -0.29813775 0.0017236985 0.25823277 -0.3114022 -0.3384266 0.15322329 -0.081233814 -0.2713889 -0.15622042 -0.26207784 -0.2551158 -0.4353418 -0.011773492 -0.24289231 0.06469792 -0.016275164 0.07549877 -0.113621205 0.17397065 -0.20513266 0.10296645 -0.43220523 0.13856675 0.35511237 0.27549696 -0.29951864 0.32509968 0.18412398 0.20412338 0.09119336 -0.20019254 0.080058426 0.056879383 -0.14882517
OP 0.11652648 -0.074120454 0.4292665 -0.18237889 -0.19800256 0.30662656 0.4711566 -0.025305739 0.5415089 -0.09797632 0.27739125 0.49757004 -0.3740383 -0.36215588 -0.15531023 -0.045300595 0.48013312 0.052591607 -0.15754466 -0.05744023 0.4341661 0.16277874 -0.57181364 0.20671035 0.20949754 0.79004943 0.11623808 0.29193968 0.4356984 -0.7877608 -0.22463638 0.03202848 0.6781652 0.17584851 0.40831646 0.0038344716 0.0020470354 -0.5447966 0.11145961 -0.23984335 0.031389147 -0.1102369 -0.6140251 -0.004320614 -0.32249212 0.08801822 0.6699503 -0.37745446 -0.41839007 0.06557973 -0.36697575 -0.4238153 0.24184069 0.535058 0.3980176 0.29391006 0.08373163 0.17981502 -0.4736681 1.2361066 -0.59445024 -0.17020322 -0.3710958 0.9408026 0.8313789 0.6235864 0.19499922 -0.6304579 0.61569476 -0.47231558 -0.59256405 -0.3461945 -0.11196952 0.6768132 0.40448862 0.22292031 0.65435404 -0.67569894 -0.18022476 -0.13627897 -0.2214901 0.36284974 0.30311513 -0.17592733 -0.358004 0.1983662 -0.40824133 -0.47394675 -0.13867429 0.18604301 0.074152485 -0.19546144 0.6886605 -0.8942181 0.07320388 0.29001835 -0.8067337 0.34061587 -0.45555374 0.8815616
PAYMENT 0.04021815 0.07026977 0.19231576 -0.37326226 0.33692417 -0.19751817 0.25983033 -0.05396139 -0.0015508238 -0.20895489 -0.34594685 0.09931796 -0.0787382 -0.064502195 0.13504949 0.17986394 -0.17972109 0.2879249 -0.25884518 0.12179329 -0.26039726 0.040902045 0.22672512 -0.36297104 -0.15448448 -0.037856072 0.22423743 -0.09452116 -0.015836397 0.07862182 0.019551964 -0.037413463 -0.15482518 -0.072057 0.13279995 0.0007817394 0.1013051 0.016008215 0.058290716 -0.27361888 0.08793773 0.12632503 0.014010728 -0.43284833 0.09713792 -0.13659047 0.2420381 -0.12849586 -0.16433403 -0.25187224 -0.14296071 -0.06269436 -0.22898357 0.2592841 0.1451411 0.27386147 -0.18542619 0.033973735 0.15259883 -0.07062155 -0.21602483 0.41855383 0.07285096 0.13383982 0.17628627 -0.1650755 -0.15214054 -0.14618608 -0.13114904 -0.1600831 -0.020104866 0.22683339 -0.31353953 0.023828343 -0.04476267 0.13195488 -0.22319382 -0.26567507 0.116828375 0.20957914 0.09945261 -0.033605304 -0.022547174 0.3253264 0.15135829 -0.2517059 0.002575607 -0.3895535 0.17538619 0.2987329 -0.20105906 -0.40273324 -0.09936843 0.100165665 0.011865713 -0.109924376 -0.19870014 -0.13768505 -0.11699141 0.11130604
WWW -0.18298694 -0.50744885 0.4570677 -0.4327229 -0.24237819 0.014837535 0.073030494 -0.14831066 0.24526693 0.10888514 0.28181213 0.07682305 -0.44428813 -0.0770804 -0.16230248 0.31151265 0.7024535 -0.02043558 -0.10920267 0.34500143 0.25912827 -0.34342602 -0.4058533 -0.06331287 0.34989923 0.7122616 -6.5508735e-05 0.695158 0.16883066 -0.61511695 -0.19241102 0.23828436 0.7478781 0.39640364 0.5416511 -0.45884076 -0.05224401 -1.014203 0.2549186 -0.35983342 0.42270502 -0.0044624773 -0.23211314 -0.13927492 0.091393694 0.11292778 0.18949449 -0.25730252 -0.40547523 -0.055266093 -0.48062044 0.15681273 0.33442548 0.44599843 1.0721118 0.34932336 -0.0089924075 0.5714684 0.27391872 0.83727884 -0.09246021 -0.47992578 -0.4372514 0.41475028 0.7635208 0.54338807 0.38351035 -0.7742343 0.59115076 -0.7475897 -0.33148602 -0.65175354 0.08185347 0.28711665 0.114131376 -0.20598207 0.45346013 -0.25772843 -0.17004848 -0.24378335 -0.6388041 0.4820817 0.25461325 0.08005404 -0.2998724 0.40908086 -0.4363401 -0.48482376 0.12681821 -0.3082256 0.049549047 -0.4412143 0.0937836 -0.15609959 -0.5290571 0.084407486 -0.89519906 0.21415 -0.42579535 0.54257125
GROUP 0.0300527 -0.033054322 0.33259377 -0.035427924 -0.30479813 0.20903929 0.5553528 -0.12992997 0.42419982 -0.14061233 0.17410606 0.5252803 -0.48693126 -0.55546016 -0.109925516 -0.14075705 0.69551957 -0.06466472 -0.13655517 -0.2254547 0.43462944 0.1984347 -0.6085419 0.18230025 -0.076478235 0.5387896 0.26761484 0.19196409 0.37039587 -0.6633909 0.11334525 0.10286716 0.8079868 0.25762457 0.1487197 0.08725235 0.03375232 -0.47785106 0.16145693 -0.42382863 0.21303405 0.018229075 -0.55033654 0.0035857728 -0.18649973 0.22311054 0.6582703 -0.26708347 -0.33534738 -0.014623515 -0.5761639 -0.28502756 0.5130853 0.55039877 0.14043634 0.23680045 0.12724212 -0.08102186 -0.39457452 0.8732052 -0.55775255 -0.14543355 -0.5843172 0.74021524 0.5651937 0.50150675 0.19087353 -0.69784087 0.6141744 -0.32435983 -0.73309046 -0.16371627 -0.15928122 0.63455594 0.39672095 0.3494292 0.41181812 -0.6016035 -0.075572744 -0.13646953 -0.0358227 0.18373902 0.23981787 -0.49685618 -0.54630905 0.21330696 -0.33606344 -0.25388214 -0.017318891 0.033787616 -0.0734478 -0.15684663 0.4717172 -0.90700805 -0.081026785 0.24166018 -0.6741912 0.3815915 -0.5214291 0.94829744
ASDA 0.08535508 0.061495062 0.16637334 -0.26196197 0.3631269 0.18742022 0.11171788 -0.16081192 0.23253146 0.14786853 -0.015063804 -0.06143834 0.014371086 -0.17853087 0.18555889 0.038611148 0.3000962 0.187911 -0.5338602 -0.314202 -0.107035846 0.11347206 -0.38432047 0.09861555 -0.095947735 0.26007038 0.13447763 -0.23905389 0.019931385 0.054433394 0.07842158 0.4724678 0.22166578 0.41389093 -0.21047726 -0.18382949 0.20778544 -0.13133866 0.026077656 0.22795126 0.13949548 -0.3089882 -0.0063455245 -0.30377862 -0.15553105 0.30362496 0.075984776 0.11619854 -0.057818756 0.18288556 -0.06500268 0.16029665 0.15300742 0.1177551 -0.1758642 0.24994498 0.24933927 0.10941175 0.02368098 0.1869005 -0.08454057 0.098833814 -0.324683 0.2831608 -0.07230023 0.32702258 0.06481141 0.013104235 0.2205534 0.11858355 -0.21418658 0.5002222 -0.34905005 -0.11480841 -0.1954565 -0.080997154 0.07740075 -0.14816706 0.005561978 -0.25427803 -0.15226755 -0.0974198 -0.20596103 -0.115915775 0.028800016 0.06339872 0.0823099 -0.022688186 -0.01085816 -0.0340317 0.020247312 -0.09786003 0.3590647 -0.26091456 -0.14161971 -0.47022408 -0.2824332 -0.07078971 -0.5672435 -0.01189179
MCDONALDS -0.0047790264 -0.028355377 0.02548222 -0.06332169 0.055916883 -0.0058180126 0.053839024 -0.034432363 0.044494804 -0.014868507 -0.039519396 0.017000644 -0.014922482 -0.07381879 0.06354845 -0.007211298 0.107370965 0.055945147 -0.0817315 0.019585706 -0.06873277 0.0030199126 -0.055853456 -0.018010546 -0.034748852 0.1128748 0.038847655 0.047205463 0.031121828 -0.00790174 0.07361572 0.055263124 0.071401425 0.103279136 0.015235936 -0.0624821 0.048348516 -0.061694678 -0.011678254 0.005009976 0.053430043 -0.04331107 3.800404e-05 -0.07704335 -0.026850522 0.053021003 0.040290907 -0.029375434 -0.07762378 -0.050657615 -0.0044700513 -0.0027623766 0.024168048 0.05756807 -0.0100952 0.08001435 0.053998824 -0.029212413 -0.0017544387 0.1350062 -0.0076480834 0.038967505 -0.08531937 0.1274223 0.08277981 0.053768527 -0.02177747 -0.05183916 0.06962341 -0.043901984 -0.071707465 0.013222752 -0.05394473 0.027424857 -0.0081666615 -0.023720045 -0.03016165 -0.07884143 0.015715597 -0.05930865 -0.04034718 0.027640173 0.03888199 -0.008267151 -0.041276954 0.055357635 -0.04841125 -0.12909071 -0.036263637 0.04185444 0.020011526 -0.10152152 0.07597576 -0.03791389 -0.031970393 -0.061040018 -0.112028025 0.022758245 -0.115641624 0.06001365
AMZNMKTPLACE -0.06759749 -0.17429353 0.2499863 -0.19509768 -0.094459414 -0.0064531663 0.14225891 -0.07205916 0.0877887 -0.13396531 0.08169842 0.11489531 -0.24220411 -0.1674368 -0.016667375 0.10933432 0.3416997 -0.12815873 -0.019601481 0.13876466 0.11927917 -0.1636879 -0.29521292 0.07524317 0.06460955 0.32402992 0.14979263 0.316144 0.068651125 -0.45896605 -0.20037189 0.19987106 0.4076291 0.067693226 0.30324915 0.008468887 0.0061726854 -0.5225124 0.07004147 0.01923751 0.2510376 -0.049430523 -0.1723516 -0.122786134 -0.09499729 0.0351646 0.13326454 -0.14959194 -0.102209605 0.060360454 -0.24904156 -0.058929525 0.30066434 0.28663042 0.38028035 0.08363249 0.018398084 0.19661072 0.020583194 0.48053154 -0.04726638 -0.18811002 -0.18767136 0.34761766 0.38170952 0.28484726 -0.03916548 -0.21340202 0.2447211 -0.28537875 -0.025935324 -0.3806924 0.05769872 0.11821241 0.13262005 -0.028814605 0.29687694 -0.2156307 -0.09042282 -0.06222195 -0.23256081 0.25899118 0.14709285 -0.172375 -0.12876756 0.111663595 -0.29510415 -0.2485637 -0.13464497 -0.027980588 0.07803369 -0.3332795 0.12551382 -0.14947869 -0.24946792 0.0063742367 -0.3694067 0.116860606 -0.14653277 0.5009892
UBER -0.5225607 -0.7295293 -0.09585684 -0.6389046 -0.14929633 0.275171 0.29952237 0.1669715 -0.24171929 0.2778313 0.037079994 -0.44445446 0.046603724 -0.27283597 0.42141023 0.042011052 0.34101215 0.4175567 0.09756903 0.18389809 -0.33110186 -0.2266581 -0.30698824 -0.13678133 0.06928168 0.64659697 0.25233427 0.3917495 0.14568038 -0.5692924 0.5023831 0.051618595 0.5381852 0.9759753 0.5156454 -0.54287034 0.14508401 0.24964333 0.60052264 -0.27142432 0.4401234 -0.75071776 0.37095302 -0.5610572 -0.37243742 -0.0788809 0.18527806 -0.36564812 -0.385028 -0.16225277 0.12034616 0.3350532 0.20582917 0.5506452 0.567962 0.05180749 -0.003126061 0.36287072 -0.18515252 0.9298519 -0.69414556 -0.068342656 -0.43209693 0.37391606 0.21346469 -0.14548275 -0.19670704 0.143993 1.0351819 -0.4752765 -0.46341303 0.50010633 0.37053052 0.5061491 0.16541295 -0.13818958 -0.023777004 0.34475532 -0.18850066 -0.24773099 0.17269522 0.44628474 -0.37755513 0.6019875 0.11276896 -0.26563853 0.20588642 -0.77433634 0.054039225 0.060155734 -0.47633803 0.037966263 0.21315135 -0.11298267 -0.71342266 -0.064483054 -0.8857606 0.1777373 -0.89970297 0.21067832
AMAZON -0.043637916 -0.28858256 0.38275114 -0.23309964 -0.2642569 0.043371957 0.113768846 -0.07967403 0.17059025 -0.047625963 0.115547165 0.18814784 -0.3639546 -0.19235487 -0.008483944 0.17493944 0.48474723 -0.26820982 -0.046384223 0.12298868 0.1811134 -0.16103378 -0.3999546 0.07738612 0.10678516 0.33902287 0.14453986 0.43345007 0.061476577 -0.64947975 -0.32746294 0.15593252 0.58053577 -0.016660603 0.42285436 0.013141756 0.015462887 -0.715566 0.123520054 0.04975133 0.35056433 -0.027471662 -0.2094305 -0.11007831 -0.14820656 0.21643034 0.29114223 -0.17552102 -0.17856249 0.054656733 -0.37343964 -0.034835897 0.50156206 0.33514827 0.52141607 0.08869081 -0.012189083 0.19901067 0.077608205 0.7072452 -0.10607212 -0.2601879 -0.13951892 0.4078544 0.45125413 0.41390368 -0.021910764 -0.35548916 0.34847197 -0.50758326 0.016021812 -0.6417177 0.11320982 0.2560734 0.25586107 -0.050768718 0.4313085 -0.24430265 -0.07530774 -0.072494596 -0.29110375 0.3902671 0.20590605 -0.22221495 -0.18832795 0.2021589 -0.45824152 -0.3529022 -0.2365246 -0.10726702 0.097323775 -0.4399435 0.21259746 -0.18043783 -0.34774515 0.05693483 -0.47013187 0.10003814 -0.14518355 0.70642215
THE 0.19064353 -0.14735354 0.070616566 -0.60615784 0.40069607 -0.06625697 0.18100199 -0.13028257 0.2185111 -0.101706974 -0.40503252 0.0999067 -0.07249697 -0.20708814 0.39994684 0.05085218 0.47727814 0.18433537 -0.27881834 0.07887844 -0.395966 0.21885946 -0.14905085 -0.09461554 -0.2134231 0.58504486 0.3205178 0.2268999 0.033428196 -0.10454791 0.09714775 0.15911819 0.26863697 0.38262743 0.023681594 -0.43712085 0.33835357 -0.2833261 -0.1701452 0.12280048 0.2763133 -0.14046131 0.15238456 -0.30454314 -0.21372569 0.34204814 0.15487055 -0.099418744 -0.26241872 -0.27675918 -0.045094047 -0.067095555 0.18087971 0.38071752 -0.19005278 0.47515845 0.2623888 -0.30808735 -0.21711953 0.61187875 0.094724976 0.26558444 -0.4374452 0.5543125 0.48043698 0.15066907 -0.16585177 -0.22632024 0.33045918 -0.002642909 -0.47804213 0.07065073 -0.33820537 0.023185512 -0.16729721 -0.056012362 -0.13889624 -0.2800135 0.008363825 -0.1955227 -0.15417491 0.17784528 0.21440557 -0.022983039 -0.1870065 0.30811578 -0.14369419 -0.56898797 -0.29862297 0.12424618 -0.0041381097 -0.61166084 0.4474951 -0.13181646 -0.063331634 -0.3694105 -0.52178293 0.023762431 -0.41477054 0.3147907
ITUNES 0.019438652 -0.2687085 -0.0058756336 -0.05919911 0.1993337 0.027837038 -0.22927922 -0.20846283 0.2267786 0.56362253 0.4557997 -0.373909 0.28609785 -0.0716578 -0.022287749 -0.082066864 0.7618601 0.864612 -0.60449946 0.31784165 -0.47373414 0.015137582 -0.18732849 -0.432522 0.088081084 0.8525256 0.12143755 0.4240873 0.09769538 0.18262945 0.7102052 0.14352973 0.3561923 0.7756505 -0.14329502 -0.9700803 0.07879077 -0.26961216 0.3064296 -0.6455417 0.1308599 -0.054252464 0.33889776 -0.45256987 -0.08092528 0.25128523 0.20834883 -0.06747918 -0.7100156 -0.5082769 -0.19189681 0.22852801 -0.31557032 0.337119 0.66557354 0.6969369 0.23354597 0.362814 0.10479828 0.77588105 -0.25751293 -0.064476386 -0.7741766 0.35192424 0.5766935 0.42839536 0.53496444 -0.66509604 0.52975196 -0.7206815 -0.4975806 0.3810742 -0.38861296 0.22716701 -0.25787488 -0.28611174 -0.42071235 0.024483738 -0.1796324 -0.5751001 -0.45080957 0.018536868 0.19131222 0.6105075 -0.44524565 0.40140754 0.122523084 -0.5593042 0.51298517 -0.26596957 -0.09171454 -0.07460797 -0.16969651 0.0530494 -0.6751253 -0.24466005 -0.82631886 0.31006315 -0.36169392 -0.32245532
TRIP -0.2601214 -0.59613174 -0.2793381 -0.43517223 -0.25795642 -0.034741513 0.26220524 0.06279856 -0.03389724 0.39117113 -0.18916446 -0.18969724 -0.13776487 -0.028719004 0.28177088 0.27933216 0.23270069 0.34808207 -0.1336833 0.22277594 -0.016185502 -0.26383752 -0.15490408 -0.4014256 -0.036562786 0.22777112 -0.043369878 0.07264748 -0.2111743 -0.47647226 0.11853989 -0.3183183 0.3378945 0.527727 0.26154158 -0.32290223 0.037739366 0.010141351 0.21164046 -0.34569564 0.49451444 -0.6884773 0.24150522 -0.19087657 -0.20134892 0.11934789 -0.17899306 -0.4666014 0.05366645 -0.45422715 0.14910132 0.03051125 -0.3037149 0.43702647 0.31629622 -0.049933877 0.30355498 -0.0020611591 -0.024548393 0.38569027 -0.30811626 -0.012754792 -0.08899566 0.41578767 0.18026724 0.055487033 0.22288479 -0.21205479 0.86099225 -0.28027815 -0.45741892 0.22353409 0.18036503 0.43517393 -0.050895166 0.033645697 -0.3049027 0.110565186 0.20961007 -0.23454769 0.11446708 0.3422764 -0.01763677 0.11191777 0.15316476 -0.026970046 -0.24851121 -0.44738868 -0.2718511 0.046193566 0.07599297 -0.30828092 0.2578642 -0.48292446 -0.21195054 -0.46897095 -0.28950965 0.025951715 -0.5412373 -0.036813855
BILL -0.2348483 -0.1654423 -0.2264649 0.01396056 0.059406336 0.13419828 -0.17960308 -0.22797082 0.17418991 0.5010974 0.37254936 -0.45345092 0.09295678 0.024587652 0.12211347 -0.24021979 0.63675946 0.9719783 -0.6401396 0.21090229 -0.6169549 0.29645738 -0.21746682 -0.33237016 -0.07340141 0.83739114 -0.04491608 0.45822275 0.17598847 0.2572875 0.64145553 0.11915507 0.28454813 0.81998026 -0.17600559 -0.97122765 -0.034080714 -0.30481607 0.14641675 -0.42661166 0.25864884 0.010369881 0.32317272 -0.2189982 0.06960558 0.12242836 0.19136246 -0.13411815 -0.61278754 -0.43239352 -0.19318868 0.3709671 -0.2913075 0.52725065 0.6038683 0.59411603 0.42312622 0.36640358 0.09616069 0.84410113 -0.11792556 -0.06587725 -0.8002499 0.24745321 0.6515238 0.35248023 0.45785907 -0.63703054 0.3786555 -0.7704737 -0.6384843 0.5051706 -0.38987598 -0.017047146 -0.39317313 -0.24945123 -0.3793157 -0.13551743 0.0069984347 -0.57522225 -0.4674277 0.090767786 0.20094156 0.6499946 -0.47606108 0.345454 -0.10090076 -0.53320646 0.4801437 -0.15734583 -0.17814815 -0.09450688 -0.0837259 0.12318527 -0.5939761 -0.25765115 -0.69340795 0.21687576 -0.44629252 -0.31824207
BOOTS 0.0024577975 -0.053765588 0.060875796 -0.1898164 0.16630647 -0.0025120145 0.10979965 -0.081442125 0.08362621 -0.059530646 -0.15182166 0.03943541 -0.05082497 -0.16418147 0.18876769 -0.009331237 0.2545425 0.102138 -0.18729758 0.08099172 -0.18684031 0.030532015 -0.12049754 -0.051301185 -0.11029859 0.28542203 0.12264184 0.12659638 0.069112115 -0.027036225 0.14824271 0.122347355 0.16765404 0.23032853 0.0619835 -0.17292054 0.110427834 -0.15135592 -0.042875763 0.05426106 0.15721703 -0.08904263 0.02892037 -0.21164519 -0.09657177 0.12602495 0.10163045 -0.05976174 -0.16279316 -0.13709515 -0.01120396 -0.036677994 0.073503405 0.1492633 -0.04055485 0.19072941 0.14569022 -0.10785107 -0.031468898 0.3198191 0.007217164 0.12305981 -0.20279633 0.29746893 0.23144917 0.10371445 -0.08909898 -0.10102228 0.15851343 -0.06355933 -0.17721684 0.03828286 -0.15296252 0.054944254 -0.016785378 -0.043068156 -0.09169664 -0.15598708 0.026822904 -0.14008136 -0.09458643 0.09547431 0.101608805 -0.03907233 -0.12471551 0.14837965 -0.124482125 -0.32470512 -0.09994222 0.13716038 0.05032906 -0.29992303 0.19184788 -0.09593931 -0.07589571 -0.16589995 -0.24652429 0.038267042 -0.25321814 0.18036002
EAT -0.24570367 -0.4908427 0.4501346 -0.5507381 -0.32054153 -0.06885006 0.22001258 -0.22506936 0.36380056 -0.19344006 -0.07043308 0.23536071 -0.56878936 -0.0395794 0.037215058 0.30778095 0.6801609 -0.24023432 0.06909019 0.33200622 0.29343322 -0.36666715 -0.33397505 0.06276102 0.24458244 0.6005443 -0.05509745 0.56839806 0.1277295 -0.62436783 -0.36824527 0.2892545 0.68410367 0.10594524 0.62430316 -0.34785363 -0.04923755 -0.9579391 0.06775183 -0.26510915 0.35715118 -0.15704465 -0.42701423 -0.18056382 0.032660227 0.13194486 0.13511378 -0.3526861 -0.27422664 -0.03179923 -0.3739218 0.02723936 0.36075824 0.40408584 0.76512736 0.18309562 -0.11952623 0.45367995 0.33263075 0.7059044 -0.015370179 -0.24416159 -0.15735368 0.48697954 0.5522275 0.36535546 0.025260076 -0.5001821 0.607365 -0.42056862 -0.23181002 -0.70827806 0.10570164 0.27297172 0.23066275 -0.2809701 0.38555142 -0.41715282 -0.17196807 -0.17706835 -0.58741367 0.33319348 0.321323 -0.04649602 -0.060787953 0.3564413 -0.37602052 -0.5139574 -0.19089615 -0.1145525 -0.0146205705 -0.522602 0.11865652 -0.12369879 -0.26103157 -0.065814786 -0.708109 0.1508211 -0.3250438 0.48389915
WAITROSE -0.016816897 -0.08941121 0.08899908 -0.21279462 0.19017997 -0.026696876 0.15198615 -0.113475144 0.12598103 -0.054999717 -0.15503564 0.065001 -0.06566715 -0.22867109 0.23050782 -0.012817946 0.35388488 0.15416127 -0.23726521 0.07422731 -0.2086875 0.02734188 -0.17759873 -0.04715948 -0.1134359 0.37414628 0.14375646 0.1414408 0.11233874 -0.035893332 0.19931914 0.16247907 0.22682571 0.31868854 0.07849116 -0.19136319 0.13155901 -0.19302095 -0.0366705 0.032093033 0.18493666 -0.14054698 0.01145973 -0.2605172 -0.09699231 0.15019819 0.14467211 -0.099922664 -0.23466095 -0.15603375 -0.014279171 -0.029496988 0.069424935 0.19337913 -0.015968258 0.23179087 0.17719245 -0.09968005 -0.034026455 0.4078157 -0.020188363 0.12660444 -0.25980586 0.38117594 0.2692979 0.14499223 -0.08963 -0.14927341 0.22648935 -0.11992084 -0.23985824 0.040907484 -0.17335534 0.07746293 -0.025514886 -0.0639359 -0.08672023 -0.21642967 0.040494822 -0.18909156 -0.11918885 0.121783674 0.123097144 -0.033464067 -0.13143568 0.1801513 -0.1491548 -0.3934617 -0.10978654 0.14879052 0.052828647 -0.36151224 0.25041005 -0.13558498 -0.09423763 -0.19039391 -0.31501082 0.060289424 -0.34728757 0.21191433
SCOTMID 0.022571087 0.0013688147 0.16216838 -0.036615483 -0.24802653 0.147347 0.44928676 -0.08886599 0.28259143 -0.09240509 0.1533644 0.37475914 -0.3810279 -0.3120438 -0.065618664 0.023948645 0.5077964 -0.08196775 -0.046363477 -0.14365546 0.3564538 0.091246694 -0.3753078 0.17753774 -0.031433083 0.35606733 0.1552491 0.201957 0.24119176 -0.560092 0.00038798063 0.08477748 0.6055902 0.13828096 0.1706895 0.069742896 -0.038683217 -0.41803616 0.0200307 -0.29802653 0.1972991 0.04154631 -0.36500344 -0.007268575 -0.15291095 0.06411653 0.45859718 -0.18830085 -0.18838082 -0.0122374175 -0.47071368 -0.21944118 0.41306263 0.45286095 0.22176236 0.15742064 0.11999065 -0.070477426 -0.1958798 0.63903385 -0.3985933 -0.13750926 -0.36658746 0.5050384 0.4515734 0.41062066 0.1302443 -0.4953561 0.45985463 -0.36236697 -0.47995985 -0.1863724 -0.023804488 0.4748961 0.25619173 0.28389752 0.27593088 -0.4077648 -0.15640116 -0.15022591 -0.08371871 0.18108307 0.14622386 -0.28047198 -0.32558388 0.12871376 -0.21560653 -0.14501984 -0.0056798398 -0.03604381 -0.08189559 -0.14228399 0.3612285 -0.62799674 -0.069467984 0.20917143 -0.4934836 0.2260887 -0.2995721 0.74268234
JUST -0.03706234 -0.43554586 0.53653365 -0.436432 -0.04514213 -0.13157879 0.16900483 -0.029974343 0.16572094 -0.10897627 0.067322776 0.10478888 -0.3893394 -0.23124905 -0.19055736 0.4600268 0.516343 -0.18162483 -0.03169322 0.3161672 0.3666354 -0.3508431 -0.42318773 -0.020612666 0.32897213 0.5353768 -0.096467085 0.5323061 0.023276163 -0.4638649 -0.3176945 0.2487165 0.49835098 0.4345946 0.6758106 -0.06312625 0.027198859 -0.9308284 0.16344576 -0.034571145 0.3800356 0.03172644 -0.16023315 -0.31639174 0.13530324 0.003980238 0.08951806 -0.06115859 -0.30237857 0.10889234 -0.2078781 -0.042331066 0.38923526 0.37499484 0.77596587 0.29620674 0.07959776 0.28293672 0.18727086 0.5222358 -0.00952201 -0.39994845 -0.25602087 0.3462658 0.6880886 0.43682915 0.22110066 -0.6048164 0.35962448 -0.37963957 -0.1810473 -0.77302 0.2696573 0.28613254 0.09243731 -0.088502556 0.47009888 -0.26901513 -0.019443171 -0.11659631 -0.48881713 0.63993967 0.04869861 -0.13657922 -0.22602338 0.40911028 -0.42071545 -0.32585236 0.16298336 -0.17041802 0.28016976 -0.54728705 0.2452323 -0.26684946 -0.35485584 0.033594668 -0.65666085 0.24001616 -0.5708275 0.8284771
FOOD 0.058138803 -0.097511165 0.37983894 0.057598703 -0.27362537 0.261206 0.64977354 -0.18630375 0.4345899 -0.13540754 0.069353245 0.59411585 -0.5544939 -0.63221645 -0.078631185 -0.05938275 0.74650735 0.14210969 -0.1588354 -0.22882736 0.30508417 0.14831255 -0.72369176 0.13397796 0.038247988 0.62420547 0.15025821 0.10313235 0.532313 -0.71646345 0.2046708 0.08977738 0.69486713 0.4268604 0.39783892 -0.03325093 0.07245998 -0.48446822 0.0473896 -0.2942563 0.1918757 -0.1574132 -0.47627333 -0.09037153 -0.24845006 0.13296907 0.6644269 -0.3909015 -0.45243764 0.04456038 -0.39262146 -0.37625518 0.34212327 0.3182609 0.27622846 0.27320018 0.034154925 0.008231332 -0.43512267 1.0899359 -0.51823884 -0.11707743 -0.37755156 0.77437097 0.49422437 0.50745267 0.12645313 -0.6461682 0.6561765 -0.4021519 -0.6917831 -0.2739465 -0.2594338 0.6174463 0.2561136 0.40522197 0.4992264 -0.63601464 -0.058847148 -0.2335118 -0.016891673 0.28694457 0.27429333 -0.35960644 -0.48419955 0.17420636 -0.2208118 -0.42382866 -0.08791102 0.08540699 -0.10093087 -0.15063888 0.6231401 -0.97899294 0.06038648 0.41656637 -0.47528616 0.5014124 -0.48490247 0.89464915
MARKS -0.5183155 0.24767816 -0.02929472 -0.19050781 -0.21445261 -0.72762764 0.48998722 -0.53627115 0.26270273 0.060068987 0.06301813 0.021316431 -0.2948452 -0.3622872 -0.04884138 -0.31984103 0.7563009 0.24799037 -0.24551995 0.110342756 -0.38476008 0.33747917 -0.66609514 -0.38130832 -0.55761075 0.77844316 0.39563125 0.11374651 0.26636502 0.11807013 0.7278448 -0.018755727 0.3513162 0.9741719 0.5349502 -0.83732593 -0.19458097 -0.4944005 0.4004521 0.59825367 0.45888597 0.16872945 -0.328618 -0.3056172 -0.015154282 0.24642248 0.19291998 0.1188488 -0.26695618 -0.3635215 -0.03766272 -0.13571793 -0.2957206 -0.14899276 -0.54800767 -0.059840158 0.16695653 -0.06862222 0.40722522 0.72975343 -0.17127122 0.33404064 -0.22412162 0.62957233 0.5577255 0.5962174 -0.23209502 -0.52886635 0.4217894 -0.54375637 -0.21338359 -0.18719098 -0.43498123 0.23220791 0.16616386 0.3676695 -0.009614655 -0.8057424 0.43469098 -0.4925764 -0.24730253 -0.1665541 -0.35462892 0.2933621 -0.61928594 0.17014067 0.004031365 -0.46986476 -0.0849315 0.69393504 0.33249465 -0.25147012 0.5251514 0.042088807 0.42563918 -0.473599 -0.38480395 0.36795175 -0.5624051 -0.27465835
SPENCER -0.05404358 -0.1726096 0.44153106 0.071598254 0.22723147 -0.2376322 0.47425073 0.06545426 0.20034482 -0.2889139 -0.15542158 0.06589452 -0.07844192 -0.42747426 0.09049544 -0.07167295 0.11111301 0.1127555 -0.80222714 0.40146986 -0.6120227 -0.18439786 -0.5571801 -0.0075424933 -0.00918398 0.6138159 -0.20325677 0.3512727 -0.114839785 0.28358498 0.80525845 0.5586778 0.014320887 0.9782451 0.46831438 -0.3888721 0.57623154 -0.28531384 -0.2669454 0.5506123 0.12955612 0.102851994 -0.27128205 -0.05841646 -0.6202592 -0.19231902 -0.26217297 0.2563347 -0.6355921 -0.43626517 0.48676026 0.26388732 0.33738294 0.39643952 -0.5244942 0.7515432 -0.30357483 -0.14343277 -0.37003076 0.6050784 -0.12999073 0.41659805 -0.18352555 0.94755244 -0.035697456 0.3555364 0.0764761 -0.7368199 0.628432 -0.07109463 -0.4201652 -0.12366941 -0.60602945 -0.051216707 -0.19257458 0.38344294 -0.27853942 -0.7423425 -0.15200423 -0.59786147 -0.12593585 -0.21917693 0.18738152 -0.48210305 -0.4744339 0.5837718 0.031933747 -0.8399169 -0.18122078 0.2394336 0.21682097 -0.82362103 0.28661934 -0.096406244 0.09106467 -0.065036476 -0.25657207 0.33421612 -0.10484358 -0.19996841
ALDI 0.029195283 0.024161013 0.024176627 -0.06278707 0.0912551 0.01796284 0.030647088 -0.03619557 0.03968981 0.0042222766 -0.009829091 -0.024187319 -0.0009441037 -0.055021416 0.058070756 0.009169152 0.057224777 0.023743307 -0.11491244 -0.07277618 -0.051903058 0.03209024 -0.09425113 0.03005753 -0.01908317 0.06680254 0.0330335 -0.062385604 -0.0062126615 0.049403884 0.02766027 0.1203805 0.017623961 0.097182065 -0.076060735 -0.038922988 0.059706766 -0.00440347 -0.030518973 0.08883507 0.011667267 -0.073326565 -0.0011111987 -0.049569584 -0.071299255 0.0642329 0.009765527 0.012522617 -0.01217362 0.032142587 0.02866442 0.026367156 0.030926589 0.0062714913 -0.09286642 0.058823742 0.0598661 0.026551915 0.014786169 0.036194865 -0.017508587 0.018465 -0.07190174 0.05844789 -0.030719914 0.019413559 -0.010335655 0.019258967 0.037104346 0.0522657 -0.03621647 0.13372986 -0.07416725 -0.03024228 -0.047927264 -0.02608133 -0.00094429945 -0.05068919 0.0052536586 -0.038605977 -0.013880005 -0.0380159 -0.057725985 -0.021362355 0.02125288 0.00085239805 0.04666541 0.011609777 -0.009384719 0.012491795 0.019019749 -0.021133786 0.09020792 -0.052172527 0.005484454 -0.09474308 -0.050896183 -0.018625388 -0.14363877 -0.034477778
OFFICE 0.7798714 -0.086322956 0.030468373 -1.2823697 0.8601247 0.17657799 0.16998887 -0.13518414 0.3114688 -0.31075487 -1.0831828 0.08443416 -0.19089684 -0.045901276 0.7197803 0.47311231 0.46496287 -0.045493506 -0.19777039 0.032569516 -0.8579212 0.52651525 -0.0020061382 -0.16101964 -0.21422377 0.8732569 0.6021298 0.4503097 -0.043035205 -0.32127118 -0.32630613 -0.019426776 0.33449748 0.38093364 -0.15804303 -0.86977005 0.89741236 -0.3223039 -0.7391517 0.28441072 0.22988938 -0.19408317 0.39596078 -0.30228063 -0.4972437 0.73191977 0.1741498 -0.13898595 -0.12707913 -0.46207565 -0.02273883 -0.68704545 0.23264569 0.747384 -0.6691451 0.83710325 0.3233771 -0.73437446 -0.9121092 1.0094231 0.4606571 0.74278706 -0.8734759 0.90420496 1.1954217 -0.00012451557 -0.19330463 -0.23377724 0.5297358 0.43184456 -1.1469858 0.095175445 -0.6840373 -0.0518895 -0.11051556 -0.10688632 -0.43001074 -0.027410131 -0.198103 -0.06945537 -0.16386557 0.27476338 0.4535805 0.20311087 -0.46114835 0.5777447 -0.16610363 -0.7755118 -0.65695 0.36641255 -0.046216406 -0.99070793 0.91941315 -0.28607875 0.2698271 -0.76204264 -0.75200236 0.10842753 -0.73441887 0.5525089
TRAINLINE -0.044812273 -0.050033752 -0.029735869 -0.0360916 0.050714847 0.029364701 -0.04631714 -0.050699107 0.03519988 0.13144803 0.08667567 -0.12203494 0.0491694 -0.008651291 0.0018785312 -0.03391932 0.14555928 0.26610932 -0.1665323 0.05797132 -0.15904415 0.027206995 -0.021082161 -0.12270479 0.0076639676 0.20907985 0.020257764 0.12814346 0.04120467 0.08132326 0.1905781 0.00093786774 0.06711459 0.21800053 -0.057272695 -0.23273598 0.010642173 -0.05768208 0.063263305 -0.15828358 0.044655874 -0.008017526 0.08676847 -0.071073905 0.031873077 0.05018403 0.07038082 -0.023774667 -0.1624045 -0.12198429 -0.031398598 0.072142266 -0.07944072 0.08222549 0.16390996 0.17617881 0.05339465 0.09126741 0.030151146 0.18084666 -0.056599747 0.007002842 -0.1909955 0.06967511 0.17529213 0.06359693 0.12575395 -0.15275681 0.12829371 -0.18017738 -0.1584202 0.13542818 -0.11237523 0.029692639 -0.10954632 -0.061901603 -0.10862377 -0.012478617 -0.03427893 -0.13318335 -0.13645269 0.00043946668 0.05160785 0.1956747 -0.11575124 0.08003784 0.004800598 -0.15632516 0.12833244 -0.05827672 -0.05999716 -0.019884918 -0.040430296 0.056180265 -0.14707898 -0.04181123 -0.19689295 0.09017914 -0.09695875 -0.11223255
GREGGS -0.021512713 -0.03456964 0.040429365 -0.093971804 0.0929872 -0.009500129 0.06043138 -0.047669332 0.053428587 -0.029479735 -0.0707078 0.027762884 -0.026965061 -0.10839723 0.1030177 -0.010826543 0.16238482 0.07582422 -0.12532048 0.04137632 -0.11360236 0.00870608 -0.08183525 -0.030542836 -0.07055231 0.16889715 0.07271539 0.06776383 0.042986497 -0.008673516 0.109756574 0.09303713 0.10910855 0.14480522 0.0348959 -0.09777871 0.059826754 -0.08650557 -0.013965679 0.021950124 0.10004896 -0.05939734 0.014735015 -0.1295111 -0.04825012 0.07142512 0.059170067 -0.037204444 -0.11071347 -0.079884134 0.0023872347 -0.010080184 0.03168247 0.08155858 -0.008114186 0.10834756 0.08439163 -0.056791738 -0.0008709433 0.19208695 -0.0020571034 0.06421228 -0.121453516 0.17262635 0.12215974 0.07243199 -0.037147142 -0.070269234 0.098747976 -0.053172346 -0.09635493 0.022856293 -0.08504272 0.027781023 -0.010424928 -0.032558147 -0.0595185 -0.0998003 0.021882012 -0.094016775 -0.052278373 0.05491554 0.05602304 -0.021540953 -0.06013587 0.085048236 -0.06858637 -0.19402534 -0.044490457 0.07293737 0.029366054 -0.17533793 0.10608652 -0.05685502 -0.05513387 -0.094575785 -0.14719774 0.02425149 -0.15907721 0.0982143
MORRISONS -0.119188294 0.041118063 0.31173742 -0.22293632 0.44790816 -0.24871823 0.23771526 -0.54232925 0.04018534 0.25262964 0.2129519 -0.33716998 -0.029949116 -0.28725234 0.297268 -0.26692793 0.5589647 -0.02238827 -0.7954066 -0.32800442 0.079045855 0.055701327 -0.6954824 0.20066501 0.16381864 0.14440116 -0.042176034 -0.097826876 0.2846497 0.34548494 0.41905144 0.63548243 0.03909216 0.68922 -0.40332544 -0.5775381 0.4265026 -0.3646863 -0.3637727 0.21216963 0.35688385 -0.5307711 0.10432882 -0.5701777 -0.4592478 0.44813335 -0.0113824 0.124822825 0.022357719 0.33287096 0.08985888 0.22174528 0.17216688 0.40630233 -0.55179256 0.5206979 0.6107172 0.21426785 -0.1851301 0.4097232 -0.4452369 -0.22412647 -0.73367876 0.6996598 -0.259487 0.5033237 0.33001316 -0.36959407 0.30920866 -0.0543455 -0.040853966 0.46791092 -0.6132021 -0.27566534 -0.27540106 -0.47885707 0.043905262 -0.391677 0.04810793 -0.22141023 -0.24588679 -0.35260355 -0.18920851 -0.33369187 -0.30936655 0.30489114 0.14889404 0.20657533 0.26691994 0.33559465 -0.16815124 -0.24872261 0.5837149 -0.22990859 -0.3343768 -0.5212388 -0.17695364 -0.2815925 -0.81621844 -0.24427988
RETAIL -0.0733753 -0.50609994 0.3273622 0.118644744 -0.0008210522 0.2207781 0.30537313 -0.33235055 0.5155755 0.052502327 0.2474378 0.29632825 -0.014538737 -0.6006378 0.23139648 -0.72370034 0.38940075 0.25462455 -0.1784652 -0.0667697 -0.13197868 0.040197015 -0.779571 -0.15136178 -0.2106544 0.43318352 0.49890575 0.12447034 0.13680142 -0.43463925 0.46917766 -0.017084377 0.5129649 0.59182864 -0.01928429 0.22666419 0.38403755 -0.15934983 0.1508505 -0.39010388 -0.023489939 0.002765064 -0.41601413 -0.048486598 -0.37959474 0.5110637 0.47743803 -0.59878457 -0.45567617 -0.27985263 -0.13777988 -0.17695677 -0.09138494 -0.14367327 -0.13327283 0.14997545 -0.12908489 0.23559414 -0.06417562 0.4997291 -0.32797796 0.4614707 -0.76127756 0.5788051 0.44169894 0.18265237 -0.05530036 -0.39007768 0.23124212 0.012076462 -0.4543741 0.072374314 -0.2683936 0.005560356 0.1637274 -0.1921135 0.14411007 -0.5423203 0.40439075 0.290759 0.066949666 0.10205564 0.41274872 -0.49056697 -0.3355248 0.20987725 -0.6162678 -0.6576766 -0.13439341 0.4196645 0.51279026 0.08159454 0.30973762 -0.71728 0.17967832 -0.07773804 -0.6729295 0.666338 -0.61419827 0.14952268
LIDL -0.017367503 -0.054137453 0.05286112 -0.08638682 0.045795728 -0.0049268357 0.053770162 -0.042237148 0.05105828 -0.02979698 -0.053002827 0.040410377 -0.045896478 -0.088054575 0.06560058 0.0055647483 0.159517 0.027346976 -0.080108225 0.051306657 -0.060463496 -0.012090585 -0.07951303 -0.021767527 -0.029023873 0.14834902 0.059684232 0.09850597 0.050814163 -0.056144062 0.048720036 0.07424274 0.11989991 0.11174593 0.07529196 -0.06188835 0.04832184 -0.12047444 -0.006985888 0.0048053833 0.09991732 -0.039917253 -0.017009841 -0.09805833 -0.031436503 0.06440295 0.05377412 -0.04716413 -0.100753695 -0.062561244 -0.028408557 -0.015634831 0.05242422 0.08559967 0.04878721 0.07756246 0.062613614 -0.023512177 0.0078003304 0.19663253 -0.0013433989 0.029718526 -0.11146518 0.15951653 0.1303958 0.08147538 -0.02401653 -0.08931486 0.09447929 -0.07903077 -0.073568605 -0.044404265 -0.044672653 0.04206585 0.017574713 -0.024750132 0.0072678174 -0.095091015 0.0100328615 -0.06961956 -0.065928 0.07244339 0.06643882 -0.02302224 -0.05838936 0.07795701 -0.094892874 -0.17917787 -0.056809492 0.049912073 0.03623062 -0.15688787 0.09092191 -0.061857384 -0.060483344 -0.061309583 -0.14933634 0.037306517 -0.13069932 0.13169028
AND -0.26716194 -0.05949305 0.34480637 0.08733504 0.03598738 -0.31150022 0.71730083 -0.33077535 0.36837098 -0.21972206 -0.14993815 0.30507082 -0.2651785 -0.622083 0.050849475 -0.42980778 0.46161243 0.3305151 -0.38983867 -0.07342937 -0.39545974 0.086523205 -0.78694963 -0.27788 -0.28639793 0.8080263 0.16491155 0.031453066 0.20523268 0.22099394 0.96870345 0.21388191 0.3740358 1.0459455 0.43779635 -0.4375808 0.41204575 -0.37118343 0.17234609 0.40761942 0.16236302 -0.0034351079 -0.34919357 -0.07941125 -0.15420915 0.26138273 0.24627702 -0.022824498 -0.6626455 -0.3202126 0.22994739 0.06472037 -0.008957396 0.15589179 -0.7097687 0.50841004 -0.2974311 -0.24803853 -0.13585909 0.71242595 -0.28320932 0.39418176 -0.47497445 0.82664156 0.23239736 0.3150182 -0.36292595 -0.4605347 0.681741 -0.39288196 -0.3444622 -0.15984829 -0.5107783 0.1999072 -0.015671832 0.42244512 0.077174254 -0.9996823 0.18771581 -0.5590545 -0.014783111 -0.11019948 0.07920794 -0.2278303 -0.5584018 0.2741975 0.005470066 -0.7081056 -0.17246222 0.4237303 0.23533192 -0.29889962 0.53697354 -0.28988534 0.26817364 0.028428875 -0.39814934 0.4827125 -0.52453357 -0.15252173
POST 0.7657747 -0.10409837 0.13599783 -1.301315 0.7865831 0.10414401 0.19379258 -0.09045214 0.2444009 -0.24833289 -1.0574433 0.14344038 -0.19170085 -0.01284289 0.7118784 0.43193623 0.55329657 -0.04179932 -0.19615306 0.14921522 -0.85727763 0.5123136 0.0038318967 -0.14843884 -0.3113122 0.83883935 0.5367496 0.43859416 -0.08603779 -0.21051165 -0.26956856 -0.026734121 0.28161642 0.308959 -0.2002005 -0.92388815 0.8919517 -0.38954434 -0.7204607 0.24161471 0.2662776 -0.17212948 0.43168348 -0.23727997 -0.6109152 0.71507764 0.15227854 -0.15969957 -0.20747733 -0.5070135 -0.16462612 -0.65724397 0.3609797 0.76317126 -0.6445484 0.8765095 0.37790683 -0.7255295 -0.92431813 1.0240234 0.50809616 0.7032135 -0.8316416 0.928624 1.1872839 0.11875069 -0.27421492 -0.2510261 0.4789418 0.4453242 -1.1297945 0.017730642 -0.730997 -0.056623578 -0.251426 -0.1057486 -0.35661283 -0.10835206 -0.30041724 -0.17611535 -0.31695887 0.3350982 0.5411989 0.034199268 -0.46311533 0.5035989 -0.17939535 -0.7301988 -0.67389 0.3221554 0.039956313 -1.0166123 0.93428177 -0.26649514 0.32897338 -0.82432 -0.66497946 0.16148463 -0.6646603 0.5789503
WM 0.021426646 0.01620649 0.2120646 0.008798472 0.35671356 0.3115487 0.19735302 -0.1806634 0.52605605 -0.2557526 0.15836811 -0.09605327 0.14577197 -0.5857792 0.5027955 0.29030114 0.4619159 0.49061373 -0.5764583 -0.32080317 -0.17386654 0.3203586 -0.57440406 0.3342498 -0.3010767 0.7141119 0.26630908 -0.37466252 -0.21472572 -0.14575432 0.18833883 0.69617593 0.5173673 0.5660745 -0.55686635 -0.58274037 0.19652447 -0.19284597 0.079369105 0.5164199 0.16727841 -0.67514735 -0.2553096 -0.40610865 -0.44560763 0.2731831 0.07319698 -0.24560009 -0.4777899 0.2245311 -0.3058583 0.43672997 0.37298357 0.27415127 -0.30167142 0.12257203 0.35765916 0.14521559 0.22619335 0.18128563 0.13693853 -0.1481254 -0.42434457 0.5307987 0.30133936 0.03270507 0.02081083 0.1491983 0.17609979 0.41724166 -0.60284734 0.71667665 -0.2386549 -0.23164116 -0.19732161 -0.051512543 0.053060703 -0.146178 0.35327372 -0.5135091 0.28219664 -0.11740502 -0.12568212 0.1595918 0.33308414 -0.018758971 -0.022781814 0.15393351 -0.19769368 -0.012347804 0.13162601 0.11268696 0.62861294 -0.44353282 -0.43149325 -0.37231082 -0.555974 -0.15629488 -0.95804864 -0.048892483
MARTIN 0.24746007 0.30425066 0.01162952 -0.23798524 0.54887193 -0.43100867 0.42281654 -0.49338672 0.2282674 -0.100890525 -0.5635843 -0.33890662 -0.0349326 0.03560578 0.6009046 0.36914295 0.10957405 0.19820347 -0.5263194 0.34636107 0.14161874 -0.3873804 0.15782714 -0.4798191 -0.09803571 0.07915584 0.56751674 0.67748284 0.5100818 -0.05424147 0.718838 0.5428009 0.50026685 0.5626894 -0.21764909 0.08893311 0.17388692 -0.5305527 -0.4116789 -0.1650204 0.37400883 -0.38090464 -0.29258108 -0.7418068 -0.33369014 -0.16620505 0.4084584 -0.05672204 -0.5402203 -0.029630164 0.10881649 0.4476732 -0.17852163 -0.12309817 0.19732726 0.13670456 0.49171358 -0.053670857 -0.077292725 0.22695881 -0.08274261 0.10089883 -0.30239835 0.8693879 0.41780433 0.5944984 0.2180444 -0.48352113 0.25663057 0.027899712 -0.67061645 0.13873656 -0.7770518 0.28410104 -0.035925988 0.124285646 0.049442302 -0.19503032 0.30602646 -0.6950127 -0.6522634 0.2871258 0.53051853 0.020522024 0.15379915 0.15801807 -0.6466021 -0.66395926 -0.38584659 0.45758146 -0.37239027 -0.88486487 0.5807876 -0.16443849 0.24337201 -0.07538013 -0.81814116 0.13951916 -0.12801968 0.36145183
MCCOLL -0.07956122 -0.26130852 0.47643003 -0.10423818 0.4921792 -0.46061552 -0.1659095 -0.46467134 0.47223398 0.3454889 0.0411628 0.40862638 0.28554213 -0.76794624 0.6763581 -0.07913613 0.18262571 0.42934445 -0.14889517 0.28982058 -0.34800565 0.34077448 0.11503363 0.17775394 -0.19442415 0.60729873 -0.10576479 0.6531562 0.094408914 0.3692227 0.3860416 0.7360466 0.0074886293 0.2739776 0.04588737 0.09740009 0.5884854 -0.37984774 -0.1477854 -0.2362576 0.19732958 -0.43346867 -0.3404287 -0.20581855 0.09292271 0.19806279 0.6407335 -0.12118782 -0.62467575 0.1548177 0.2870737 -0.32563177 0.020138647 0.62738216 -0.28814864 0.47865078 0.42860568 0.01876511 -0.3365267 1.0538002 0.0018074788 0.47474408 -0.68323183 1.1122042 0.5782876 0.7096916 0.1829891 -0.44711 0.06199709 0.14413577 -0.5225908 0.15098175 -0.003748903 -0.08421557 -0.0934938 -0.12306744 -0.286125 -0.73389804 0.5526937 0.10091433 0.22618973 0.5509205 0.24959992 0.34601155 0.12108583 -0.12506023 -0.5651043 -0.5351391 0.19428074 0.39562222 -0.0018252456 -0.44203457 0.3951444 -0.23810056 -0.08055145 -0.053071737 -0.4277343 0.26958564 -0.3680971 0.73665774
COFFEE -0.32960328 0.20870356 0.38413882 -0.23847015 0.4200987 0.090544425 0.67638093 0.038753472 0.12733684 0.15955696 -0.69060427 0.17671351 -0.08311046 -0.71599114 0.37653452 -0.21740721 0.4985939 0.069004744 -0.7742245 0.29462728 -0.36131725 0.18315549 -0.5940767 0.24561721 -0.5588278 0.44746104 0.14052916 0.22143574 0.08520947 -0.2683147 0.55668837 0.40311465 0.5458194 0.63604736 0.2519878 -0.5430192 0.062228885 -0.43421012 -0.2664961 0.1919473 0.6082118 -0.3187728 -0.002925279 -0.6022579 -0.16855434 -0.23325488 0.4507064 -0.53253424 0.24651913 -0.29000726 -0.2857856 0.1683164 0.12815836 0.60039324 -0.21443382 0.49127412 0.33215076 -0.031053845 0.3086473 0.16253257 0.0061201975 0.22226344 -0.42622212 0.14725837 0.5316463 0.41573068 -0.54094875 -0.36208555 -0.07569326 -0.28406277 -0.3022479 0.18652573 -0.2912362 0.45336157 -0.06809961 -0.12252579 -0.120327555 -0.53882986 0.12733066 -0.5932832 -0.56341463 0.39864105 -0.04259367 0.1876103 -0.38430107 0.7125681 0.18295568 -0.7020809 -0.1488322 0.20770401 0.14462444 -0.5650392 -0.04097396 -0.48733202 -0.44056377 -0.049815647 -0.015107735 -0.14810249 -0.6492377 0.328575
VIRGIN 0.20394056 0.21913171 0.54725844 -0.37216765 0.3476255 -0.01388676 0.11691565 -0.15735653 0.7360162 -0.32508913 -0.22411063 -0.18001744 0.059097867 -0.70566165 0.6016423 0.0028266395 0.57719415 0.18146613 -1.0399007 0.40420538 -0.7766131 -0.582606 -0.115243 -0.55878717 -0.27764678 1.0258944 0.39884776 0.4562007 -0.037805475 0.09637535 0.8334179 -0.0522757 0.13420399 0.6101965 -0.08519932 -0.2528268 0.26102945 -0.18535414 -0.47080302 -0.03660385 -0.0735964 -0.36038223 0.04874941 -0.5557905 -0.12668307 0.14628598 0.016608108 -0.2419943 -0.36341298 -0.472536 0.42521155 0.0456611 0.05964281 -0.11443658 -0.08679131 -0.024810577 0.5991615 -0.25489113 0.3656522 1.0454222 -0.33311024 0.64771175 -0.39951715 0.5032798 0.556142 0.19683985 -0.3167657 0.072441444 0.509736 -0.45752397 -0.64915556 0.6549665 -0.36034977 0.000341688 -0.11654337 -0.6910168 -0.8390678 -0.5681491 0.28245234 -0.6035695 -0.48508224 -0.24683182 0.43109772 -0.10436424 -0.10213448 0.5135131 -0.6911247 -1.1286654 -0.3957234 0.5679502 -0.13194448 -1.0088711 0.6652083 -0.029913938 0.2235347 -0.31466046 -0.5391411 0.011064495 -1.251598 0.2409577
B -0.14579734 -0.1087685 0.0788968 -0.11119315 0.13849592 0.14724731 -0.011066152 -0.28651944 0.35389453 0.011553673 -0.011800887 -0.12858088 -0.04528979 -0.2813057 0.07284787 -0.45899212 0.50759196 0.38951495 -0.20114087 0.09119559 -0.54141045 0.053556982 -0.34826714 -0.44568688 -0.39508313 0.6886597 0.27138165 0.44485655 0.21638499 0.26956686 0.5591111 0.089706786 0.46417028 0.68820906 -0.05875544 -0.41787988 0.091347985 0.053536765 0.33220384 -0.18478753 0.12799042 -0.024861243 -0.12613004 -0.056919307 -0.016283635 0.4374524 0.17455125 -0.22144148 -0.42956248 -0.34855986 0.15855642 0.092878625 0.14781712 0.15127423 -0.14538813 0.2771022 -0.10664839 0.0073797433 -0.007229688 0.45360905 -0.06882154 0.31271285 -0.71225303 0.6019466 0.42540124 -0.013459624 -0.04493362 -0.23076534 0.40235072 -0.18571927 -0.6413242 0.15275759 -0.33741087 0.117548384 -0.08148782 -0.097153634 -0.17020044 -0.18669555 0.3609534 -0.11326974 -0.06495864 0.004775646 0.30377766 -0.06007053 -0.49498194 0.2534216 -0.38443425 -0.6226676 0.10948843 0.3469001 -0.031261522 -0.23758923 -0.13618538 0.002725904 -0.3745439 -0.18764164 -0.39321178 0.31694484 -0.46655717 -0.11039462
ONE 0.33998746 0.44051167 -0.21623707 0.094880514 0.6387413 0.31417254 0.65422875 0.0700543 0.41447118 -0.1956638 -0.377657 0.44225198 -0.1269282 -0.36109138 0.5342489 -0.26897186 0.14918478 0.6551694 -0.5865065 -0.039467104 -0.3819658 0.10333868 -0.09499206 -0.072406255 0.07698999 0.1946516 0.566763 0.11929466 0.31778982 -0.07139361 0.77828676 0.26565072 0.8035073 0.8986372 0.3792751 0.120061085 0.45438302 -0.6260263 -0.43656108 0.14976308 0.63683695 -0.15016444 -0.1867033 -0.60373735 0.24448673 0.14038646 0.28702995 0.057075106 -0.19101597 -0.3199278 -0.17749731 -0.2655142 0.33536565 0.6176347 -0.18012135 0.6437158 0.69962627 -0.5455444 0.35634315 1.2218931 -0.7260156 0.14466953 -0.77718043 1.1146173 0.16662544 0.4349634 -0.26775384 -0.2278187 0.19790557 -0.79736376 -0.174042 -0.0474644 0.15545589 0.120189615 -0.06023206 0.205932 -0.12597683 -0.3237146 -0.3928769 0.09080102 -0.7967316 0.2976468 0.37488827 0.28261805 -0.39656967 -0.14773054 -0.31552356 -0.8787363 -0.51667446 -0.16802362 0.012917636 -0.13617319 0.98794043 -0.40919605 -0.07997832 0.11129953 -0.22953248 0.1420793 -0.717769 0.6534294
H 0.15701748 -0.4246698 0.35002822 0.18745144 0.39233512 0.26456726 0.32254148 -0.48851237 -0.15468323 0.2636628 -0.5843043 0.14530934 -0.49634242 -0.7920289 0.16820341 -0.41375673 0.9191031 0.59191114 -0.1362785 -0.27747327 -0.58144385 0.13715695 -0.8842749 -0.45452484 -0.019538062 0.6941946 0.12583977 0.23460539 0.3717282 -0.351769 0.8552149 0.63092303 0.030776246 0.946453 0.5660131 -0.30936626 0.07307019 -0.48850203 -0.2619326 -0.2926965 0.50466436 -0.6089343 0.054839622 -0.69930553 -0.40394565 0.5630249 0.6171946 -0.27625972 -0.07921142 0.1937432 0.21427913 -0.14089395 0.10033394 -0.113109656 0.19244012 0.34611502 -0.023961363 -0.17047791 -0.2819804 0.9201834 -0.024456162 0.20672657 -0.16865915 0.3720977 -0.035414837 -0.08066775 0.119066365 -0.3078698 0.6743725 0.071213946 -0.4167082 -0.06886754 -0.7656816 0.07375711 -0.41299778 0.2152753 -0.20394875 -0.5959136 0.30060762 -0.2274826 -0.37983137 0.33111835 0.29918727 0.00654353 -0.25031173 0.36411017 0.058980867 -0.8826592 -0.21227811 0.16530351 -0.2458329 -0.3638834 0.5283907 -0.5858146 -0.2962146 0.07713949 0.03491267 0.35757652 -0.60829556 0.49787235
L -0.29749554 -0.24220587 0.32749316 0.004668292 0.30730617 -0.22201686 0.8766553 -0.37215617 0.54027975 -0.22589718 -0.29758903 0.3844059 -0.14963652 -0.70453256 0.26799718 -0.4788477 0.5999729 0.50897825 -0.2634286 -0.17121361 -0.26603106 -0.0470325 -0.72489095 -0.44369176 -0.3491128 1.0225118 0.18157801 -0.017291766 0.047389455 0.32726926 1.237196 0.24409932 0.571227 1.0990512 0.33135685 -0.5589071 0.6268011 -0.6607947 0.31433073 0.12518963 0.042747125 -0.28413832 -0.4133082 -0.35466364 -0.009832034 0.5766773 0.55335194 -0.08899876 -0.8234445 -0.3614385 0.22449873 0.107627526 -0.21374427 0.31657252 -0.7870436 0.92298883 -0.20811793 -0.5712885 0.028006481 0.8967426 -0.3984841 0.4022108 -0.9577181 1.0328175 0.5370259 0.20015277 -0.79312944 -0.07063382 1.0265464 -0.6514242 -0.094223745 -0.10001616 -0.43930843 0.40960348 -0.06742627 0.016601501 -0.007633281 -1.1492908 0.29118064 -0.91020083 -0.18922703 -0.019174296 0.26455802 -0.123964176 -0.579416 0.43100822 -0.04008831 -1.1948153 -0.39544514 0.43339288 0.38512444 -0.13455686 0.8671774 -0.3430905 -0.19432573 -0.20682603 -0.9052192 0.20941053 -0.9647279 0.11255536
COUNTE 0.6671207 -0.03138779 0.08709481 -1.1445128 0.7339143 0.030549753 0.23958339 -0.18945807 0.25910917 -0.19628318 -0.92945 0.11403681 -0.13369514 -0.112123564 0.7054491 0.38000572 0.5340585 -0.044937838 -0.19365132 0.1190843 -0.75182104 0.51486385 -0.04545594 -0.1225002 -0.26584768 0.75439644 0.5860341 0.41769135 -0.09755667 -0.27196902 -0.22882596 0.10688438 0.2796299 0.33008015 -0.15488668 -0.8366094 0.817609 -0.33734214 -0.6707118 0.1803636 0.3007361 -0.22860436 0.3532582 -0.3173853 -0.5439688 0.5934973 0.16237256 -0.09644757 -0.13238525 -0.36451283 -0.13241313 -0.5352095 0.28139552 0.6857336 -0.53876036 0.7783365 0.31303546 -0.65069157 -0.8055817 0.92008954 0.46076873 0.65007764 -0.7710051 0.77904785 1.0699372 0.04913477 -0.20185484 -0.30540615 0.4606177 0.33861226 -1.0484891 0.07273341 -0.67576295 -0.02396552 -0.1799984 -0.045073397 -0.30824003 -0.13793217 -0.2504694 -0.09473702 -0.1734342 0.2659191 0.46288797 0.14934856 -0.3542236 0.52518356 -0.16544437 -0.77826244 -0.576571 0.31827477 -0.006280339 -0.9500859 0.8512239 -0.2127499 0.25202972 -0.7352683 -0.64231455 0.08690279 -0.5954382 0.57567376
BANK -0.1225007 -0.19209372 0.02889159 -0.39508155 0.3687014 -0.083639115 0.28132078 -0.06505649 0.07140192 -0.11959719 -0.47321028 0.10260555 0.034093324 -0.35236275 0.48591217 -0.03406631 0.562279 0.038115237 -0.4363273 0.29068163 -0.31884134 -0.012935391 -0.16496992 -0.01685127 -0.13864559 0.79007703 0.14156696 0.41793674 0.032628886 0.024762616 0.32589167 0.42973405 0.36840725 0.3279783 0.09605491 -0.38617215 0.14388976 -0.1779609 -0.08208657 0.2663154 0.48666263 -0.18946275 0.06580149 -0.6655396 -0.24215707 0.21769223 0.12759446 -0.26389575 -0.41774556 -0.27722496 -0.04095247 0.18522352 0.21458001 0.36602217 -0.11271919 0.2639987 0.37450767 -0.282316 0.2019453 0.75951517 0.019245975 0.27679902 -0.48197764 0.7501909 0.3016784 0.36533052 -0.12001669 -0.22966887 0.30335397 -0.2785366 -0.15433611 -0.020560347 -0.31744352 0.05568859 -0.04575041 -0.23205705 -0.16565453 -0.40871805 0.13750377 -0.23133329 -0.11615755 0.13004805 0.106353685 -0.24587902 -0.24528882 0.54461884 -0.5842287 -0.8639116 -0.46220168 0.34859398 0.38937998 -0.7370924 0.49833745 -0.22878365 -0.33900425 -0.42726418 -0.70027256 0.021031195 -0.5563712 0.37303382
PRET -0.5089479 0.054113302 -0.060190473 -0.34908924 0.05247211 0.21770926 -0.11040916 -0.39179987 -0.10724775 -0.6212303 -0.15826473 -0.2578307 -0.6326399 -0.572202 0.019874169 0.17787549 0.57625675 0.046075117 -0.558795 0.5578755 -0.4308792 -0.21564332 -0.33739728 -0.5108402 -0.6320072 0.46183032 0.09386563 0.45254153 0.2575136 -0.077096544 0.63621956 0.48322582 0.5613274 0.6766725 0.4576029 -0.17807387 -0.09760565 -0.29665685 0.32211053 0.4987962 0.83501565 -0.061044462 0.044026528 -0.8703356 -0.5543002 -0.20876285 -0.0884348 0.28037795 -0.815238 0.101164326 0.41445714 -0.27543432 -0.11441485 -0.17146234 0.46323013 0.4495277 0.4074396 -0.53255975 0.41214094 0.6585631 0.33499047 0.15506108 -0.7587199 0.708413 0.87835044 -0.2525166 -0.34469703 -0.532864 0.09335001 0.16214979 -0.316497 0.40640688 -0.7762655 -0.17859104 -0.17061947 0.10540482 -0.2578677 -0.09585534 0.07154498 -0.50806755 -0.26426437 -0.10509682 0.28307667 -0.03388826 -0.65620786 0.117915235 0.1449495 -0.4646853 0.16118877 0.6015788 0.5500684 -0.95556986 0.28603607 0.15999554 0.16153626 -0.6864631 -0.9203311 0.39638987 -0.76756126 0.7038601
MANGER -0.46818966 0.17479245 0.21605343 -0.46929553 0.14150867 -0.15327899 0.15507862 -0.70249337 -0.084001586 -0.55819076 -0.44923666 -0.025650883 0.2053245 -0.06458848 0.46949452 -0.015685381 0.90189135 0.45595184 -0.79955286 0.3652399 -0.6783099 -0.0726972 -0.22194317 -0.24998699 -0.61608386 0.56594354 0.24564229 0.47317904 0.07038957 0.17147067 0.7505903 -0.0021937513 0.11657107 0.1036113 0.62433124 -0.43164808 0.31314975 -0.48656225 0.010262057 0.38896662 0.052556247 0.10239223 0.3898709 -0.9040144 -0.024402112 0.031300742 0.69020367 0.10055557 -0.52191496 -0.34409583 -0.44718853 -0.5484094 -0.036218103 0.65443826 0.45389006 0.3454751 0.33533096 0.09387276 -0.25235954 0.7346171 -0.13768439 0.47603217 -0.008668197 0.50476575 0.9843605 -0.18060733 -0.70094466 0.16653484 0.2998697 -0.5109467 -0.49785 0.5530745 -0.34120727 0.53410214 0.13791241 0.35408744 -0.26547652 -0.488054 -0.13076156 -0.17604733 -0.19607227 0.1914171 -0.21612348 -0.15252997 -0.7635438 -0.08318181 -0.04437608 -0.8672516 -0.007062779 0.6005923 -0.11423364 -1.2046757 0.3240022 0.15288268 0.24965718 -0.053132515 -0.48546973 0.34748828 -0.37216273 0.84768087
MOBILE 0.043030772 -0.021739237 0.04557824 -0.16063659 0.15993898 -0.058000408 0.028947676 0.0110111125 0.11781866 -0.34850365 -0.07374515 -0.123798884 -0.12330994 -0.4171911 0.20060831 -0.1484123 0.06910153 0.07350996 -0.45044532 0.107321456 -0.35957214 -0.02064267 -0.0075935246 -0.030364746 -0.10704765 0.24268094 0.11893011 0.093883425 -0.030134296 -0.08673154 0.29069832 0.13039888 -0.14411868 0.48413327 -0.082778364 -0.22084394 0.18450457 -0.06146061 -0.0970109 -0.1826486 0.19659296 -0.066129625 0.11368198 -0.29058912 -0.08570701 0.18095933 -0.004888174 -0.03824071 -0.010717155 -0.17898677 0.13505775 -0.08231245 0.0135201225 0.03822514 -0.319759 0.2496601 0.31342444 -0.01298168 0.05773248 0.416169 -0.21165323 0.03222222 -0.012974552 0.14842042 0.10999905 0.06382601 -0.111150995 0.010062412 0.16552073 0.057748266 -0.0358776 0.40889043 -0.35372537 -0.10113795 0.07860797 -0.36303306 -0.14408487 -0.20065911 0.14736709 -0.13525571 -0.054888614 0.026284551 0.01325794 -0.2775213 0.06335558 0.289545 -0.13452214 -0.19645655 -0.18578109 0.27647606 -0.09255236 -0.41750962 0.096921556 -0.1770731 -0.030203149 -0.38294134 -0.40225014 -0.19300374 -0.26137784 -0.06761701
COSTA 0.013852765 -0.15207233 -0.14646173 -0.6517201 0.3208961 -0.27618092 -0.014948848 -0.16835272 0.52684456 -0.15711251 -0.10758008 0.37826136 -0.084066644 -0.5323369 0.40980726 -0.45883766 0.8061461 0.41072583 -0.53810495 -0.1311746 -0.3731259 0.29724175 -0.04980564 0.09605347 -0.46027046 0.76758826 0.2747708 -0.25907752 0.35411003 0.12932536 0.1105765 0.2803996 0.35470554 0.42898855 0.03271123 -0.06295368 0.051232442 0.036856245 -0.0019490435 0.28268924 0.44126973 0.035690837 0.23237339 -0.28088287 0.31264615 0.41049218 0.00801147 -0.25045425 -0.5812521 -0.08784085 0.15487598 0.39646977 0.3058784 0.33972108 0.070193686 0.43760583 0.52070093 -0.26067677 0.3827755 0.54651433 -0.10575581 -0.15855852 -0.4112452 0.56191194 0.16448393 0.053876318 -0.4504981 -0.26690432 0.40847078 -0.3991514 -0.21341437 0.10062877 0.15217207 -0.05544191 -0.23084882 0.24581435 0.254913 -0.67436486 0.3980999 -0.07330416 0.08529607 -0.04384762 0.10105225 -0.18901019 -0.036383618 0.16086021 -0.07532413 -0.09052859 -0.3028628 -0.22499429 -0.08391231 -0.6441702 0.25819173 0.012973079 0.13828087 -0.03388279 -0.66246104 -0.12555273 -0.49547672 0.18851285
DIGITAL -0.45328704 -0.23976754 -0.07403345 -0.3530689 0.034033734 -0.25638124 -0.28300306 -0.13019623 -0.08143391 -0.5530763 -0.06992313 0.060224522 -0.7945638 -0.61957777 0.033767696 -0.30521065 0.4122723 -0.16573678 -0.7327184 0.5049028 -0.56023335 -0.15364467 -0.023476511 -0.038592372 -0.41117078 0.7026169 0.38818294 0.5332877 -0.066209964 -0.47316384 0.23803231 0.711698 0.12292138 0.66832197 0.5273101 -0.30944428 0.34041286 -0.75032383 0.2158641 -0.16009222 0.8823924 0.21341848 0.114030324 -0.94014835 -0.085013494 0.48044184 -0.124992855 0.060750466 -0.14339633 -0.2938863 -0.18287215 -0.23419605 0.40307114 0.19759752 0.009217937 0.68020964 0.57083756 0.24726261 0.17583163 1.0793293 -0.16525239 -0.22256762 -0.011007681 0.40021545 0.44511342 0.2388649 -0.42079863 -0.40221208 0.5816919 -0.31967595 0.2466182 0.37202877 -0.45236823 -7.642327e-05 0.4224481 -0.39848438 0.11923858 -0.3138742 0.39773408 -0.267041 -0.005945733 0.5426754 -0.06568897 -0.6780265 -0.13280155 0.48801973 -0.59345794 -0.53278214 -0.39647785 0.57123536 0.19162485 -1.2168032 -0.13818067 -0.5370174 -0.37030545 -0.8322565 -1.1107318 -0.259413 -0.17191038 0.46874893
SKY -0.2839121 0.36562034 -0.0730804 -0.34035474 0.65115285 -0.26435986 -0.113115884 -0.3641068 0.45616955 0.048166115 -0.35452798 0.26778427 -0.4041826 -0.63247323 0.21906719 -0.058632355 0.5738853 -0.012117803 -0.6097595 0.26122475 -0.37251222 -0.42332843 -0.29391918 -0.51745903 -0.5419738 0.92274725 0.6852412 0.38334307 -0.06278631 -0.06246547 0.06969987 0.5598355 0.50077057 0.33879504 0.278894 0.001767105 0.036853254 -0.038970586 -0.263025 0.1050763 0.25518763 -0.0786437 -0.2020731 -0.61202663 -0.17421807 0.3041294 0.37003592 -0.31509593 -0.5291985 -0.16187587 -0.06465171 -0.14405753 0.15154244 0.0062639387 0.15111558 -0.014240882 0.25168267 -0.23144512 0.54479885 0.47195345 -0.2098573 0.48181307 -0.54847634 0.33994257 0.64642125 0.07191293 -0.5282401 0.04596163 0.56904966 -0.34230003 -0.4195354 0.58109945 0.004094616 0.22458357 0.04535338 0.08797803 -0.58051354 -0.436188 -0.037301395 -0.40306213 -0.27719262 0.19279017 -0.006644141 0.3476452 0.16637845 0.065330386 -0.4974608 -0.77381235 0.13468438 0.35331157 0.28212088 -0.6208459 0.19083326 0.049619775 0.084714934 -0.20063837 -0.15089065 0.2957861 -0.5668621 0.4030876
ONLINE -0.22097877 -0.009737666 0.33951625 -0.2973696 0.4028756 0.009203504 0.32908034 -0.21599014 0.18064457 0.015474681 -0.37610143 0.111342445 -0.12276152 -0.5278433 0.35288835 0.00038046917 0.52373165 0.29367802 -0.54488206 -0.14068596 -0.4851144 0.0483988 -0.40305528 -0.16710861 -0.11163234 0.6522569 0.29794806 0.07559083 0.19228235 0.13152532 0.4656535 0.36339933 0.3774819 0.59657 0.2775129 -0.21741259 0.1893586 -0.3473142 0.11101945 0.045091614 0.366505 -0.28639486 0.051397357 -0.53493875 0.11750403 0.1945503 0.3653636 -0.23848249 -0.5846657 -0.3018139 -0.12535904 -0.046132836 0.05474285 0.46317977 -0.09711765 0.33780122 0.25291613 -0.36214557 -0.085530914 0.6096225 0.031683847 0.34016958 -0.3520467 0.6583666 0.40446925 0.31585094 -0.28084758 -0.2503152 0.44483986 -0.21558164 -0.4858039 -0.038312446 -0.23536405 0.1643477 -0.026390584 -0.1588205 -0.035887748 -0.4274676 0.09351325 -0.43441302 -0.23081043 0.07053961 0.29562777 -0.0746713 -0.090701945 0.3380342 -0.12038502 -0.6836539 -0.2620305 0.27843842 -0.148993 -0.6393258 0.50423664 -0.30338204 -0.16484769 -0.38811088 -0.3197387 0.24917081 -0.66663164 0.2703024
PETROL -0.0732395 0.0046982816 0.21433686 0.14030792 0.086767316 0.17069429 0.4089684 -0.05400994 0.30010346 -0.041757092 0.053084243 0.083208546 0.018009521 -0.3189022 0.106064446 -0.068140954 0.20022617 0.21314125 -0.1904957 -0.24414632 0.14845514 0.12838814 -0.4173763 0.1084669 0.09647412 0.1710864 0.0190034 -0.22638682 0.174075 -0.3787396 0.25385958 0.10613743 0.24077497 0.3124913 -0.11172175 -0.10029735 0.07841566 -0.14396626 0.061229803 -0.08914413 0.062101208 -0.32092446 -0.14585353 -0.195067 -0.08710325 0.03674824 0.23796575 -0.14861362 -0.28713503 0.20932543 -0.2632012 0.11111706 -0.04722991 0.17158999 -0.110300034 0.031858467 0.05326263 -0.15128252 -0.12347236 0.2255393 -0.150757 -0.054821853 -0.068575636 0.4446215 0.09838764 0.23727335 0.09278842 0.01632657 0.21066633 0.24063168 -0.31775704 0.1685478 -0.29088005 0.21986745 0.0033256642 0.05652695 0.07774272 -0.16639566 0.07579878 -0.23339875 0.033983022 -0.06514924 0.066091746 -0.12252292 -0.04677622 0.18258393 0.03188532 0.054110337 -0.045295436 -0.027027603 -0.11590808 0.066547014 0.36305258 -0.356447 -0.12066112 -0.08239492 -0.069931924 0.08301649 -0.39524543 0.14940509
M -0.04020825 0.18056923 0.5809521 0.10235759 -0.22731848 0.17182094 0.79758155 -0.3175931 0.373112 -0.302208 -0.31121033 0.6154422 -0.57129836 -0.59714013 0.10033621 -0.010535439 0.60523415 0.34083137 -0.40425155 -0.4038745 -0.03713608 0.1503588 -0.6807494 0.13824767 -0.03518505 0.7282358 0.23728426 -0.092632145 0.6383094 -0.3635186 0.4016418 -0.0003471658 0.6975437 0.5948687 0.44969964 -0.071915194 0.24525015 -0.3562408 0.17124003 -0.0034231693 0.32185966 -0.27207184 -0.23021795 -0.17274277 0.10058059 0.06991691 0.7065122 -0.37967145 -0.6972228 0.038750395 -0.23644046 -0.2898133 0.14290974 0.38484612 -0.07448761 0.40999535 -0.1293885 -0.10535058 -0.5985494 1.0247513 -0.40231287 -0.0029688722 -0.25140396 0.7605146 0.31571835 0.4741224 -0.3029984 -0.44573608 0.597977 -0.47715023 -0.7464414 -0.103781745 -0.3450802 0.4800351 0.18710676 0.45484 0.5225469 -0.6409988 -0.14961708 -0.36947858 0.20269915 0.3368603 0.27914435 -0.36895213 -0.43937927 -0.016731866 -0.09426969 -0.28949255 0.054683033 0.23433726 -0.2772745 -0.33966994 0.7014491 -0.8505076 0.17590715 0.4544502 -0.18441926 0.6287437 -0.5165759 0.58124894
CAPITAL 0.17925638 -0.029549966 0.2519201 0.10052518 0.07125558 0.2954533 0.8047589 -0.048620295 0.5689653 -0.16860744 0.26233152 0.050875425 -0.17927001 -0.3742759 0.17590499 0.04441889 0.25591612 0.6597642 -0.017491989 0.33847058 -0.012555729 0.4300647 -0.45407102 0.19731471 -0.078165315 0.11983625 0.050232787 0.30501917 0.09289433 -0.24788427 0.24447238 0.08730137 0.8280885 0.48713166 0.33027858 -0.29384845 0.35245338 0.10526515 -0.44522092 -0.19501795 0.5223932 -0.08079419 -0.12360584 -0.20972669 0.13071096 0.048794646 0.47882047 0.1448477 0.105862156 -0.48299178 -0.49003345 -0.23271976 0.7800055 0.44111297 0.5036095 0.33610108 0.079001606 -0.38875827 0.2810252 0.6215627 -0.8358521 -0.22101185 -0.35403427 1.0233697 0.71703696 0.8947869 0.19086184 -0.15775001 0.21757819 -0.6755169 -0.4063867 -0.49885145 0.43488044 0.18642476 0.39506182 0.34306267 0.22209264 -0.45096314 0.15856741 -0.31172943 -0.19141026 0.14703326 -0.1506323 0.1425966 -0.10793481 0.055779137 -0.3954961 -1.0120066 -0.13205574 -0.051571865 0.079639755 -0.52226824 0.47273406 -0.3312741 -0.53719777 0.20258768 -0.65641004 -0.22402278 -0.54112273 0.751046
EE -0.00014237661 -0.0006063106 0.08446506 -0.20839238 0.24092114 -0.031938624 0.10183497 -0.1342135 0.19362521 -0.034035157 -0.16911621 0.05779525 -0.07121516 -0.24391513 0.24695648 -0.011105036 0.3633033 0.13243555 -0.3251881 0.085095465 -0.24875821 -0.070213065 -0.15946884 -0.13931867 -0.15948585 0.44161996 0.21931046 0.15246394 0.068957604 0.009396212 0.21399207 0.19430327 0.21270879 0.32774904 0.03163754 -0.17106196 0.1324349 -0.14834927 -0.101818606 0.028957704 0.14957207 -0.12363436 0.0011511958 -0.27930441 -0.11136172 0.14111967 0.13456279 -0.118215084 -0.24240416 -0.14642744 0.02416447 -0.0035755548 0.05714296 0.13874829 0.003048218 0.16336608 0.2032657 -0.1228302 0.058981318 0.39947915 -0.056105964 0.1892121 -0.3007405 0.345562 0.29014486 0.14368574 -0.10534129 -0.084180854 0.2480997 -0.14288886 -0.2786755 0.16789055 -0.152806 0.08054234 -0.039265476 -0.0896169 -0.19705199 -0.22528107 0.045736283 -0.23573549 -0.15999304 0.09560919 0.11826133 0.03433929 -0.0764764 0.17226017 -0.1979565 -0.46949965 -0.06913982 0.1602012 0.059490804 -0.36201763 0.24496369 -0.09989722 -0.05342913 -0.1802235 -0.27498695 0.071155444 -0.40300545 0.19125816
G 0.053146444 0.13127618 0.56045383 -0.0040367693 0.2084854 0.14326672 0.7093065 -0.3401625 0.07597517 -0.274819 -0.70952684 0.41373658 -0.375029 -0.4283148 0.44075823 0.086638294 0.56646276 0.4585471 -0.46148095 -0.3472333 -0.5886023 -0.005148654 -0.13543174 0.031513352 -0.21183957 0.5974636 0.32639533 -0.021712977 0.49527532 0.14366952 0.56106883 0.2978019 0.56149423 0.7201133 0.22138333 -0.0020609943 0.2562534 -0.24584565 0.021740789 0.0019278645 0.5815793 -0.45976362 0.23276976 -0.32023868 0.24813391 0.1288191 0.56683934 -0.24139403 -0.58697754 -0.29991505 0.13541743 -0.08732165 0.056170754 0.5817383 -0.2719366 0.47996554 -0.043400723 -0.47994724 -0.3891513 0.7025208 -0.06854244 0.21757466 -0.40334496 0.5183521 0.16423061 0.28365633 -0.50087506 -0.16877145 0.4807741 -0.49727333 -0.6514384 -0.08256339 -0.11213706 -0.058192056 -0.05430799 0.08341587 0.061740454 -0.52856547 -0.15956825 -0.46582666 0.09660422 0.42099392 0.46548492 0.008878212 0.041428577 -0.07318762 -0.10171314 -0.38430837 0.059278283 0.2237534 -0.33448708 -0.7058834 0.6544537 -0.39570627 -0.06664123 0.038934518 -0.055435155 0.40080085 -0.46898338 0.17110133
WH -0.43977872 0.09770817 -0.088989824 -0.24354486 0.10046184 -0.53499335 0.2555356 0.03230878 -0.34187025 0.019141931 -0.4447082 0.34292677 -0.23333062 -0.110772796 0.5341059 -0.05695712 0.9040222 0.19834706 0.03037036 0.5547451 -0.46788058 0.26636037 -0.48797 -0.05834221 -0.071579985 0.33574313 0.71515805 0.44664168 0.5344891 0.304221 0.23703313 0.5236732 0.08523162 0.07802672 0.12288091 -0.20082426 -0.041459043 -0.15930064 -0.14176948 0.5249056 0.88196784 -0.12520534 0.019372867 -0.69563943 -0.38884807 0.14634916 -0.28848368 -0.19998859 -0.4780281 -0.101792425 0.22866583 0.47208276 0.5181279 0.36981612 0.32039928 0.49990305 0.8402858 -0.6545195 0.057471585 0.27586225 0.36095372 0.122500315 -0.064701214 0.65010124 -0.051963475 0.26022103 -0.43489257 -0.20337614 0.032486062 -0.52284485 -0.44731218 -0.4824113 0.23905635 0.019364128 -0.33437955 0.19356535 -0.15470044 -0.49639007 0.39204317 -0.6154627 0.11068153 0.059338514 0.4210133 -0.23418707 0.03477595 0.2745341 -0.85090995 -0.8012804 -0.46854103 0.45045447 -0.12171325 -0.48462516 0.37380588 -0.19752075 -0.41018295 -0.4737904 -0.53519094 0.050603315 -0.76320857 0.91066444
SMITH -0.21473725 0.2627815 0.35617912 0.22731085 0.600885 -0.24440223 0.28410292 0.2258173 -0.17639533 -0.33110088 -0.40801457 -0.042168725 -0.20428447 -0.60769916 0.10933976 -0.039395973 0.8712332 0.026214555 -0.010886283 0.059522912 -0.12313496 -0.038674735 0.09801369 -0.330516 -0.62101394 0.34910604 0.055947263 0.31934837 0.4804384 0.21128988 0.31034052 0.41749942 0.66897285 0.67735124 0.6333736 -0.47570002 -0.22288729 -0.35724345 -0.4150164 -0.06280651 0.47963428 -0.30290616 0.02723697 -0.78924376 0.0012344421 0.2515266 -0.36771926 0.029694062 -0.16217464 -0.2137984 -0.15306892 0.061871443 0.17396913 0.3921107 -0.09889395 0.059007503 0.2661592 -0.6660794 0.006062676 0.46211413 0.3826949 0.32636714 -0.55937773 0.0678266 0.21867844 0.20999634 0.21032304 0.17649528 0.16875176 -0.111087844 -0.28349793 -0.47611997 0.23163979 0.1303585 0.2802328 0.062199615 -0.21045256 0.17417233 0.21945356 -0.36396936 -0.45861718 0.21434993 0.5321237 0.1389977 0.040397067 0.53323644 -0.6041504 -1.165132 -0.5770574 0.1646877 -0.07816878 -1.0600688 0.33258817 0.25220293 -0.44009683 -0.6071656 -0.312324 -0.47360876 -0.2777987 0.5783904
BARCLAYS -0.0944225 -0.40251023 0.3509145 -0.31724024 0.2518511 -0.061810233 0.56622803 -0.64183253 0.24187614 -0.480429 -0.00042660744 0.36023065 0.039620034 -0.9264843 0.004943036 0.08389231 1.0335374 0.38922465 -0.5462684 0.2245611 -0.4659406 0.289861 -0.4505657 0.08177407 0.29156196 0.41163865 -0.21969284 0.2309956 0.4973448 0.015246183 0.26929557 0.6784908 0.43364403 0.7723236 0.13118832 -0.18710738 0.09573506 -0.5821833 -0.1651235 0.015417945 0.052042082 -0.32651347 -0.26123834 0.09696309 -0.05886267 0.2577834 0.20269768 -0.026631251 -0.56971955 -0.64844704 -0.01690896 -0.51554877 0.49940115 0.3615151 0.4270414 0.352295 0.6267758 0.38063377 0.021025266 0.669122 -0.10286359 0.06013958 -0.59694165 0.64747226 0.5622947 0.32154602 -0.20759253 -0.28270435 0.20265059 -0.2843687 -0.623332 -0.31828302 0.0019375193 0.09811053 0.221587 -0.4051568 0.37654734 -0.39624602 0.039349217 0.025879562 0.16084926 0.059369713 0.48220053 0.13079359 -0.7336693 0.36707622 -0.20325848 -0.38778496 -0.30080077 -0.10912183 0.042234525 -0.8658635 0.45094088 -0.22776309 0.24194106 -0.2577562 -0.24930927 0.5433826 -0.7463428 0.43416867
LICENCE -0.11879901 -0.76363033 -0.6393979 -0.5866619 1.1384662 -0.04358224 0.6150676 0.022033986 -0.31180653 -0.34831575 -0.19778648 0.37776586 0.07138102 -0.30286208 0.687291 0.19602215 1.1351938 0.47757518 -0.35897937 0.17540188 -0.2875576 -0.22503403 0.2599711 0.7053539 -0.7282495 0.58719724 0.32173538 0.4376443 0.61933714 0.15977326 0.3060544 0.027709728 0.74632394 0.8206336 0.16189596 -0.13279629 -0.41827524 -0.41281652 -0.48571742 -0.18370485 0.184254 -0.7229895 -0.18474898 -1.3961852 -0.098290324 0.5953809 0.68217736 -0.8452453 -0.48635286 -0.46601087 0.02569202 -0.53244126 0.04628392 0.5934405 -0.7885196 0.52942526 0.4638524 -0.56968844 -0.13642332 0.86053264 -0.23322017 0.7175605 -0.33628324 1.3621145 0.66992617 0.6555854 0.08445954 -0.42041132 0.8173311 -0.09645365 -0.35231903 -0.2578587 -0.6207138 0.32668227 0.29571143 -0.2045073 -0.7349316 -0.36265367 -0.41551906 -0.15358138 -0.6588154 0.31491658 0.7317173 -0.1526865 -0.14204025 0.73618627 -0.9455587 -0.9361545 0.23283431 0.8856453 0.30614877 -1.1269838 0.6132126 0.041061673 -0.18225497 -0.60608876 -0.9597663 -0.14911324 -0.86405504 0.37883478
INSURANCE 0.03018375 -0.12769216 0.15146734 -0.3490319 0.19240712 0.0036469488 0.10918642 -0.091170795 0.16747326 0.032451816 -0.2699184 0.055633128 -0.06522379 -0.19828378 0.3702576 -0.056371916 0.43975458 0.19850713 -0.23828456 0.15327306 -0.28700477 -0.019415634 -0.21566103 -0.13100888 -0.08974035 0.47741863 0.14828773 0.16984332 0.06247584 -0.07378287 0.14275992 0.12446415 0.33091837 0.33612108 0.15455057 -0.26749694 0.1878857 -0.2459228 -0.011348808 0.043441042 0.20026556 -0.17160593 0.119228125 -0.38998103 -0.067583 0.19130635 0.1795153 -0.08396347 -0.31525525 -0.16279395 -0.08774297 -0.026693378 0.17857334 0.15308437 -0.007572725 0.3014667 0.18082772 -0.08838193 -0.05341668 0.4252525 0.010410133 0.18246587 -0.26951176 0.4665175 0.3483935 0.17975155 -0.10489182 -0.18004863 0.28448084 -0.1317763 -0.20881996 0.04332553 -0.21479025 0.08977575 0.037487462 -0.16884346 -0.13373373 -0.19455366 0.045055065 -0.28232956 -0.1892209 0.1259038 0.1788698 -0.14127946 -0.14071588 0.25251105 -0.17586346 -0.5055718 -0.10678546 0.13466603 0.10936598 -0.4441323 0.33376023 -0.102407426 -0.14812715 -0.2288846 -0.39517862 0.041782945 -0.45968464 0.25322592
ENERGY 0.006185841 -0.09605074 0.106171995 -0.1882406 0.2785991 -0.0191189 0.111367606 -0.094242446 0.17740154 -0.019482244 -0.19263776 0.069169834 -0.09787088 -0.2796966 0.25788143 -0.033832002 0.44276926 0.19889498 -0.35614684 0.13605256 -0.29576284 0.05888654 -0.21991184 -0.03354876 -0.16783935 0.50431037 0.15083098 0.14594786 0.1411359 -0.11082474 0.24376614 0.19867063 0.326281 0.4114357 0.13989544 -0.2998781 0.12760861 -0.24869446 -0.01835606 -0.00061002513 0.2210263 -0.16472971 -0.01124947 -0.36506617 -0.12355811 0.20790459 0.21698824 -0.060264118 -0.3297658 -0.16484706 0.013551954 0.01879796 0.05408156 0.25855148 0.009390163 0.25323156 0.24152496 -0.12002884 0.02147724 0.489023 0.038752425 0.16887802 -0.34578353 0.4791939 0.2797894 0.18330096 -0.093165815 -0.20861344 0.21880655 -0.10287186 -0.2325139 0.06845263 -0.17072116 0.067500144 0.0127596995 -0.073368 -0.08922791 -0.28656697 0.089957885 -0.21592198 -0.16449627 0.1133697 0.11517467 -0.035823204 -0.16293608 0.20711131 -0.14839551 -0.5052313 -0.0887366 0.20532738 0.101083614 -0.39213726 0.34619144 -0.19965559 -0.17527594 -0.23468694 -0.3891997 0.08740257 -0.45273894 0.26945144
CRV -0.60941136 0.027817184 0.09011019 -0.03512504 0.064798914 -0.23386697 -0.51828754 -0.30698392 -0.15708563 -0.26228672 -0.25498548 0.17746055 -0.36010465 -0.354013 0.15206806 -0.06660583 0.5045525 -0.3014705 -0.32978156 0.6539157 -0.25497228 -0.52222943 -0.06378887 -0.3495504 -0.5331194 0.47345442 0.35119918 0.5786685 0.041390136 -0.32814077 0.13359077 0.622317 0.32845885 -0.14471354 0.789076 -0.05941842 -0.028855788 -0.43197328 0.10795084 0.3471474 0.62611574 0.24355894 0.14243916 -0.64907074 -0.2760847 0.042164207 -0.13828199 0.048607744 -0.36025736 -0.21176547 -0.17168066 0.054882213 0.23784766 0.08291181 0.5707093 -0.12681682 0.3317724 -0.005266992 0.3975403 0.47756764 0.3162336 0.05876456 -0.12904958 0.078005135 0.40703094 0.019975001 -0.44563773 -0.13314116 0.075409934 -0.38666087 0.35282254 0.013065679 -0.019863777 0.015376332 0.26555228 0.026970599 -0.14707369 0.03167982 0.20008643 -0.3244736 -0.048133295 0.41869706 0.105071306 -0.2342236 -0.181611 0.20030363 -0.57878613 -0.6535331 -0.12300678 0.4144007 0.48537326 -0.9373584 -0.17435803 0.079905026 -0.2926315 -0.29187107 -0.28077707 -0.043609444 -0.023907352 0.74099964
TV -0.054336194 -0.78912795 -0.56654644 -0.4369342 1.1394722 0.12748912 0.7343794 0.043639272 -0.23585021 -0.31553155 -0.30767828 0.311695 -0.031450145 -0.3009065 0.5702636 0.1394499 1.2106441 0.36509573 -0.30864513 0.21313938 -0.1414738 -0.3093239 0.20536987 0.6372127 -0.6600379 0.55432355 0.33021945 0.4443278 0.6171332 0.14565134 0.37945774 0.101756975 0.64268285 0.8106801 0.13005273 -0.22353372 -0.39486453 -0.47896487 -0.3984983 -0.18682897 0.15489934 -0.5647473 -0.18410853 -1.3606235 -0.15623401 0.46565247 0.62220675 -0.81578976 -0.50874865 -0.34056795 -0.026063342 -0.51691633 0.1242298 0.5549289 -0.6641189 0.6347741 0.38481453 -0.6329369 -0.06835769 0.78792334 -0.31978458 0.52465373 -0.3398838 1.2954736 0.63842124 0.66329473 0.07725078 -0.31609285 0.8160269 -0.11960902 -0.3167758 -0.2435952 -0.5412034 0.27355337 0.2942515 -0.33481562 -0.77649283 -0.37764305 -0.44341955 -0.19434108 -0.5453737 0.19652835 0.6875811 -0.07127632 -0.057666004 0.751931 -0.7718387 -0.9362403 0.21610127 0.8118807 0.30710697 -0.9635702 0.4936761 -0.016796427 -0.12920143 -0.49955857 -1.0118312 -0.10265046 -0.725075 0.32797593
AT 0.2680231 -0.2898036 -0.054027565 -0.83037704 0.959089 -0.07858881 0.30292383 -0.024681803 -0.07480482 -0.15385091 -0.23683764 0.30589372 -0.092804514 -0.6667347 0.84094 -0.18850699 0.97255313 0.010632243 -0.8284222 -0.093152836 -0.74645793 0.2615668 -0.6211418 0.14038523 -0.12442607 1.2202471 0.20351794 -0.4941745 0.5459267 0.12315054 0.2198529 0.8832668 0.16704103 0.72963554 -0.591235 -0.33346328 0.47839844 0.066553175 -0.14606678 0.43375027 0.17123933 -0.064171724 0.47802565 -0.13504843 -0.7023889 0.3597697 0.25610507 -0.3574841 -0.86397684 -0.3825966 0.2732453 0.12522535 -0.05476552 0.18894845 -0.32303482 0.24957408 0.5483304 0.079272844 -0.15288714 1.0404058 0.27624452 0.022400403 -0.511983 0.7898663 0.39745787 0.089845635 0.011338182 0.16233505 0.3316698 -0.06426637 -0.12189581 0.46287632 -0.23933826 0.8856817 0.1589621 -0.3154071 -0.30783752 -0.28567192 -0.056324918 -0.20245458 -0.33432195 0.5290827 -0.20330314 -0.3355556 -0.12832385 0.30134892 0.13421041 -1.1607877 -0.13452908 0.11298564 0.61384195 -0.96400875 0.4885181 -0.489344 -0.16949587 -0.51789916 -1.1627506 -0.47603115 -1.3917171 0.3458204
O -0.0012163032 -0.08454636 0.06451694 -0.16928126 0.15425467 -0.018180998 0.09816879 -0.06185285 0.063653775 -0.054151032 -0.1127745 0.0720025 -0.05948346 -0.18992364 0.18048492 -0.015570968 0.27893806 0.054577053 -0.18120952 0.05910134 -0.16991656 0.010321471 -0.15053411 -0.015874406 -0.08422217 0.29838663 0.107167505 0.07463517 0.10171207 -0.04467781 0.12061586 0.17790058 0.17274965 0.21974275 0.045906574 -0.13160811 0.09955138 -0.14335091 -0.02556581 0.056930117 0.1414856 -0.07889145 0.032061096 -0.1631682 -0.10842701 0.10943412 0.091516025 -0.07773634 -0.18621036 -0.118538044 -0.003354926 -0.0009043271 0.07408658 0.13811728 0.0024027184 0.1507952 0.13475315 -0.04774935 -0.019398995 0.32952043 0.015419422 0.06414593 -0.18960822 0.28576943 0.19485071 0.11139369 -0.046181194 -0.088472545 0.15116815 -0.087706804 -0.11833683 0.012060384 -0.10378079 0.106657006 0.012463588 -0.06233833 -0.05048843 -0.14081357 0.020593707 -0.12645157 -0.10507123 0.127401 0.070514485 -0.059928913 -0.09396566 0.14691894 -0.099803835 -0.33185035 -0.08798941 0.09473269 0.09700887 -0.2997024 0.17272389 -0.119610205 -0.08995875 -0.14488946 -0.26328608 0.003836191 -0.28243694 0.18804859
CAR 0.030835664 -0.17140536 0.12719811 -0.427683 0.5275381 -0.11184238 0.39320603 -0.19051233 0.20088208 -0.12697552 -0.3836435 -0.034549665 0.021880405 -0.39260578 0.62518615 -0.1178124 0.79918694 0.36321247 -0.57962364 0.08546269 -0.5518213 0.021942105 -0.32154724 -0.067742944 -0.2335237 0.7829784 0.24242559 0.21472935 0.111160055 0.026716482 0.4954346 0.37743312 0.36111224 0.8116239 -0.0018418139 -0.38163245 0.3072108 -0.31399614 -0.15281701 0.16987155 0.4068554 -0.34083396 0.052148882 -0.55368763 -0.27471837 0.30713275 0.23748884 -0.07849012 -0.48143268 -0.3916399 0.03561978 0.085586 0.09446833 0.4145486 -0.17910556 0.52738 0.47847834 -0.27985254 -0.027315916 0.81336915 0.084101744 0.34962246 -0.49717513 0.7788997 0.41945675 0.27407026 -0.23430859 -0.21000747 0.35775295 -0.16253918 -0.48811728 0.29852372 -0.39629215 0.1539779 -0.15814884 -0.21164 -0.23762786 -0.4318787 0.08557257 -0.4257473 -0.27118564 0.16921528 0.12718078 -0.15367638 -0.19103721 0.3760512 -0.23703723 -0.8517125 -0.2955322 0.3580715 0.14771914 -0.8126268 0.48964816 -0.25177705 -0.28119117 -0.46940368 -0.7575846 0.0049297265 -0.7841744 0.3080973
WATER -0.0688578 -0.17121561 0.14766307 -0.2908897 0.3662092 0.0024715615 0.22424518 -0.20117478 0.15941544 -0.11310735 -0.3096766 0.15197314 -0.14266963 -0.3550794 0.3655647 -0.068557926 0.5508817 0.2498171 -0.37267464 0.10517347 -0.31642306 0.03846381 -0.28786704 -0.107598715 -0.2279903 0.6095065 0.2546405 0.18773778 0.18438843 -0.058166064 0.37545756 0.24592996 0.33344975 0.52393967 0.15226372 -0.32361493 0.25786263 -0.32808834 -0.08298384 0.047463603 0.29813582 -0.19825538 0.02410731 -0.40676683 -0.14382213 0.23772441 0.21563216 -0.13458912 -0.37703118 -0.19553128 0.007055222 -0.02843174 0.08466596 0.35361758 -0.094093785 0.42937368 0.28991932 -0.20572108 -0.059574068 0.67508364 -0.010889365 0.19405222 -0.43464562 0.6477446 0.46115297 0.24970074 -0.17124732 -0.27410123 0.37563565 -0.2206854 -0.2944845 0.04302967 -0.2244045 0.07677434 -0.07755929 -0.09535803 -0.123278916 -0.3696624 0.08737816 -0.3484116 -0.22072355 0.17573969 0.27337775 -0.09869297 -0.17701237 0.2530293 -0.2583289 -0.68330616 -0.24259116 0.23838295 0.105584905 -0.57821566 0.41544902 -0.16561358 -0.22603409 -0.29166186 -0.53033686 0.11688402 -0.57692814 0.38154334
NETFLIX -0.09807915 -0.114020064 -0.059515014 -0.05378964 0.033914033 0.07029433 -0.08392686 -0.07830712 0.0635389 0.23351303 0.1813733 -0.21559128 0.09205539 -0.018319897 0.0147075355 -0.06539494 0.28289634 0.4201942 -0.24411587 0.120601855 -0.23837356 0.03038107 -0.045883253 -0.18293402 0.021732578 0.3807982 0.041688796 0.2369332 0.074111566 0.074128166 0.31118944 0.0040782755 0.16034605 0.3667649 -0.067916565 -0.41847283 0.0049546203 -0.09102664 0.13819836 -0.25454605 0.09829624 -0.027664602 0.14974979 -0.11136904 0.036275975 0.071204945 0.102893695 -0.0637152 -0.2654322 -0.21286383 -0.09167592 0.15267941 -0.099453114 0.16673908 0.32355464 0.252297 0.10904831 0.18770568 0.05193136 0.33714542 -0.11962218 -0.018046021 -0.32064998 0.11695301 0.32549056 0.12921542 0.2300355 -0.24535328 0.25485724 -0.32960588 -0.2676828 0.22210862 -0.13936 0.056522496 -0.15108903 -0.11263249 -0.16215362 0.017589467 -0.076169915 -0.25393996 -0.21212465 0.020708686 0.074862316 0.30743092 -0.20266853 0.13428256 -0.016857976 -0.26618117 0.21258263 -0.11289589 -0.091683686 -0.02764012 -0.062280893 0.0678694 -0.28357354 -0.07245999 -0.3638831 0.13182582 -0.19034621 -0.17196558
J -0.11818613 -0.1628068 0.17974995 -0.41400135 0.311071 -0.052885197 0.33725688 -0.22748096 0.33896255 -0.104034774 -0.20611162 0.17002665 -0.16840494 -0.54126 0.4945439 -0.07291977 0.5646093 0.15920474 -0.5226591 -0.008257816 -0.50848323 0.08321674 -0.35147458 -0.044651013 -0.008043626 0.6802654 0.3070453 0.13391344 0.23464836 0.045938756 0.51547396 0.16136561 0.45636237 0.46212104 0.02734357 -0.35140038 0.18882397 -0.32339066 -0.0073052603 0.02699804 0.36806834 -0.37017596 0.0150385285 -0.4707046 -0.02363079 0.32908556 0.20660757 -0.10706954 -0.36306193 -0.3960433 0.06296885 -0.17877382 -0.06751002 0.248892 -0.15821387 0.59661543 0.34049246 -0.23458947 -0.15268435 0.7642884 -0.13972731 0.34825587 -0.40283173 0.66749614 0.41506407 0.26225096 -0.054702006 -0.19732185 0.3554039 -0.12916873 -0.44406474 0.14486511 -0.33819845 0.15857972 0.09025038 -0.05700192 -0.27666202 -0.5531035 0.14598502 -0.41628164 -0.22203639 0.08897825 0.14331824 -0.2074379 -0.17569982 0.31001478 -0.23073861 -0.7951767 -0.31822765 0.23029925 0.1663757 -0.6553244 0.54864055 -0.33515692 -0.21290934 -0.432447 -0.42253458 0.015454873 -0.4792317 0.20295383
LOTTERY 0.053303055 -0.08350544 0.29040825 -0.69914675 0.45500124 0.29432103 0.5853953 -0.41870245 0.54865265 0.17775111 -0.5805275 0.1802688 0.07622501 -0.29285806 0.3720915 0.120551 0.7214286 0.16084896 -0.9493316 0.15839742 -0.433378 -0.2046368 -0.51717687 -0.086789824 -0.75734675 0.22451647 0.57697654 -0.15602824 -0.15172704 -0.26809677 0.45279175 0.20639054 0.5093886 0.6836662 -0.15330172 -0.15138815 -0.07596959 -0.28346938 0.3268271 -0.09815768 0.5575821 -0.2849011 0.30437735 -0.3873879 0.18337779 0.46024418 0.43377522 0.19183165 -0.042552754 -0.32618237 0.29062006 -0.15105665 -0.050260793 0.12273476 0.05842657 0.34346533 0.1244127 -0.44776872 -0.050345697 0.29315254 -0.019319165 0.51141375 -0.562313 0.53661525 0.10601427 0.8878789 -0.25893283 -0.022488082 0.397758 -0.02959356 -0.360215 0.5355272 -0.45313096 0.16900735 -0.066444024 -0.07207957 -0.45008138 -0.42329374 0.4377509 -0.6290265 -0.69129974 0.5371207 -0.06529122 -0.36074007 -0.15476203 0.53820306 -0.510708 -1.2266886 0.012532632 0.14352322 0.200875 -0.8382129 0.6504063 -0.27030152 -0.25563 -0.8536303 -0.46674332 0.15447098 -0.56838524 0.31528214
RED 0.34317288 -0.6270244 0.32618847 -0.64369535 -0.00291505 -0.430363 -0.14454533 0.19697306 0.3515054 -0.57315737 -0.6648257 0.10642421 -0.45707804 -0.35600832 0.17470106 0.1950522 0.64767486 0.3022047 -0.2928162 0.08660276 -0.45846912 -0.067178294 -0.3322228 -0.1662612 -0.13203838 0.9279122 0.54728895 0.74417156 0.22659533 -0.07634041 -0.1417463 0.21585788 0.34030956 0.20204422 0.20973356 -0.25123492 0.35594857 -0.8278141 0.16104537 0.31658173 0.1914813 -0.18892978 -0.19383352 -0.3129602 -0.35104042 0.5056184 0.5725658 0.16687547 -0.680849 -0.6575374 -0.15735357 0.08253129 0.3167842 0.2239281 0.45625666 0.36662987 0.3350934 0.017716661 0.12859099 1.2153811 -0.064639114 -0.085519485 -0.10717475 0.75061965 0.4829144 0.21996896 -0.38321078 -0.2371453 0.25021675 0.014687233 -0.03753297 -0.26025766 -0.45180288 0.11556671 -0.35820678 -0.5187026 -0.13985054 -0.77217 -0.05203062 -0.09143919 -0.37545097 0.61920494 0.22581947 -0.009648386 0.0132410005 0.3849176 -0.2459852 -0.8668669 -0.55867803 0.074731626 -0.039975896 -0.9295275 0.34517774 -0.012888988 -0.54646623 -0.039454572 -0.59138215 0.21048063 -0.09778072 0.47187513
TICKET 0.13231555 0.12832466 0.06709402 -0.25276336 0.20669495 0.08365581 0.4916125 -0.17732772 0.47136784 -0.20025519 -0.16806655 -0.11056242 0.19889899 -0.64911 1.0366364 -0.037787747 0.74046516 0.40531906 -0.76204044 0.36753473 -0.4903611 -0.037546206 -0.6871641 0.13550721 -0.4107197 0.72484094 0.12095016 0.17066768 0.19458275 0.08628495 0.64552903 0.47806278 0.40198582 0.7258181 -0.2117661 -0.25392854 0.23997575 -0.3519268 -0.056057762 0.16874649 0.528932 -0.5039199 0.08443827 -0.48162532 0.10348492 0.01974338 0.30929223 -0.43609473 -0.42207044 -0.37809613 0.20738694 -0.1311162 0.35722995 0.20468047 0.09821697 0.63076454 0.49157917 -0.447144 0.16754344 0.64608365 -0.011239865 0.4275603 -0.53510636 0.83383816 0.29618257 0.2718648 -0.17508785 -0.43839154 0.25057983 -0.22518022 -0.4013052 -0.098070346 -0.28957948 0.38560495 -0.21518256 -0.30334005 -0.3562035 -0.5171745 -0.14698674 -0.43706542 0.07519426 0.26444113 0.28874767 -0.13919474 -0.20907886 0.5128252 -0.0142523525 -0.8410422 -0.040849138 0.7404722 0.31553513 -0.6674256 0.4344891 -0.47209027 -0.35926163 -0.51515335 -0.42916262 0.48966345 -0.6605547 0.53732693
PUMP 0.29126707 -0.159427 -0.084361255 -0.69230527 0.8022912 -0.13694324 0.19516176 0.031101359 -0.12664472 -0.16681044 -0.19173211 0.3292994 0.032942813 -0.6454363 0.67390215 -0.2628196 0.72958153 -0.106042854 -0.59435844 -0.12304865 -0.5877715 0.3136171 -0.47194642 0.22512665 -0.07453799 0.97388524 0.20489573 -0.542646 0.41337574 0.11977872 0.04391997 0.74756616 0.14038038 0.55869365 -0.6454337 -0.21180718 0.32516283 0.13148502 -0.079994366 0.35104924 0.111509345 -0.101165466 0.47878242 -0.06426224 -0.5870847 0.28576082 0.28601873 -0.37608805 -0.6010951 -0.16888082 0.2395088 0.10771182 -0.08931673 0.0755728 -0.29349956 0.14856593 0.3932044 0.050440677 -0.0854606 0.817209 0.20173267 -0.0012517447 -0.46941373 0.6076246 0.35372388 0.0034779804 0.04502315 0.19259788 0.24731968 0.0073698442 0.023120098 0.496445 -0.19719322 0.80893433 0.10332766 -0.2721523 -0.31469047 -0.16549142 -0.16674452 -0.075540334 -0.34494105 0.4121723 -0.20911169 -0.25653085 0.039929006 0.2938079 0.24631763 -0.8044258 -0.07423659 -0.041616924 0.54846895 -0.614911 0.3109909 -0.43233144 -0.16267075 -0.39329007 -0.8334746 -0.40198907 -1.1397114 0.20455469
OF -0.019021867 -0.16043822 0.19568245 -0.30095646 0.28226405 -0.029651131 0.39429516 -0.15424722 0.2870353 -0.15067692 -0.2850599 0.23199284 -0.20317629 -0.42038333 0.30515844 -0.11794641 0.5965047 0.23390752 -0.32347223 0.031427324 -0.24010602 0.06517153 -0.3819229 -0.11019863 -0.20812823 0.71611416 0.2573097 0.26074067 0.14647026 -0.12944813 0.42114317 0.25038743 0.49953026 0.5390782 0.20217848 -0.3232578 0.30343136 -0.45309946 -0.013524918 0.055486437 0.31511483 -0.17491938 -0.115615495 -0.40257666 -0.18825106 0.28977835 0.35976768 -0.1423989 -0.41823316 -0.27798176 -0.09446555 -0.030629817 0.16250335 0.38535476 -0.13891855 0.4771952 0.22104508 -0.26387522 -0.03820873 0.7943072 -0.17383084 0.1925767 -0.56361127 0.74230206 0.5312483 0.30051637 -0.2411777 -0.27416995 0.51059955 -0.32116866 -0.3470064 -0.013455352 -0.28251478 0.24683905 -0.0011164424 -0.004768272 -0.06416363 -0.56114334 0.05783425 -0.40475848 -0.20856892 0.20664747 0.24877068 -0.1264117 -0.29747242 0.34857407 -0.26866603 -0.7495529 -0.29045886 0.22608605 0.1247581 -0.4836754 0.52983326 -0.32842436 -0.20439221 -0.22693016 -0.6681512 0.15204911 -0.6362243 0.44935468
BT 0.14610925 -0.025218613 0.18388717 -0.030725226 -0.033486284 0.17241755 0.28111443 -0.034794483 0.23956402 -0.075987674 0.05791525 0.26285872 -0.101381354 -0.1999858 0.03925995 -0.08148265 0.28865692 0.06744861 -0.13254449 -0.07540465 0.11085757 0.1404979 -0.24303022 0.09343455 0.008666961 0.33830315 0.080623895 -0.0021290486 0.21192771 -0.29992542 -0.026617153 -0.036174376 0.27762553 0.115025215 0.0988983 0.028642066 0.045941006 -0.16372482 0.035741773 -0.14514607 -0.022748705 -0.10445657 -0.2894673 -0.013579264 -0.15973695 0.08518676 0.32283282 -0.21630411 -0.21622625 -0.040569186 -0.13160558 -0.1919313 0.017662246 0.17341684 0.0370818 0.18494315 0.046109606 -0.014099901 -0.27352655 0.57579136 -0.28429997 0.058251593 -0.2399606 0.4566718 0.33602807 0.20863228 0.082225315 -0.3046334 0.27116895 -0.14503019 -0.39817405 -0.03857641 -0.14748326 0.32538944 0.17272426 0.03251127 0.2591747 -0.35628232 -0.08765034 -0.06850578 -0.04705424 0.13123637 0.16614603 -0.10057484 -0.14741054 0.10334736 -0.122453615 -0.28753558 -0.15472655 0.13632448 0.045258984 -0.004354491 0.40045688 -0.4882035 0.07135021 0.10583893 -0.31317756 0.23284845 -0.26029778 0.36031458
GOV -0.2884423 -0.2727934 0.2785597 0.037438713 0.022246953 -0.15834728 -0.36513948 -0.08420058 -0.1813647 -0.098200426 -0.31649122 0.26029065 -0.01624462 -0.20611611 0.4048708 -0.07951775 0.5119029 -0.31920522 -0.022940254 0.6214366 -0.25107923 -0.3477366 0.0073927925 -0.04411132 -0.31189695 0.32403988 0.2093883 0.46362856 0.23476009 -0.31119895 0.15094107 0.55686164 0.3152511 -0.19217671 0.59930587 -0.23686484 0.063684404 -0.46605352 0.03350258 0.31641 0.6665746 0.12359343 0.24046767 -0.29635713 -0.3199686 0.07225838 -0.35160577 0.001995259 -0.18280077 -0.42214394 -0.061302736 0.4215215 0.3830967 0.26469392 0.3380258 -0.14087164 0.38247457 -0.076089 0.14559571 0.526951 0.54527277 0.0049072625 -0.2088673 0.21400642 0.032422986 0.31511793 -0.12653533 -0.29506576 -0.08677059 -0.39405623 0.5321453 -0.56947225 0.071627 -0.13727398 0.19386297 -0.18581003 0.0049034655 0.12950166 0.35636038 -0.35047555 0.031108726 0.5385907 0.40666315 -0.4148526 -0.17889977 0.5007378 -0.72498477 -0.77529997 -0.5156897 0.27189326 0.5054924 -0.75360894 -0.03315549 -0.12752609 -0.6435712 -0.31300837 -0.27365968 -0.34287676 0.0047560376 0.62079483
W -0.25144485 0.19335966 0.3160517 0.021510404 0.3317077 0.07991389 0.59333193 0.031892944 0.46478117 -0.26796556 -0.21506155 -0.021939984 0.17319266 -0.41762593 0.34096253 0.06084213 0.27365264 0.52444774 -0.5082003 -0.24062806 -0.071953274 0.052204974 -0.5962457 -0.02461863 0.1344919 0.35822293 0.25396645 -0.053292416 0.31568217 -0.41534466 0.5104853 0.35283452 0.43593487 0.60420364 0.06838615 -0.27980152 0.29086256 -0.26966003 -0.027893513 0.08645631 0.36903012 -0.5394823 -0.04839931 -0.5755204 -0.052857526 -0.0038768374 0.17092231 -0.06740399 -0.6301178 0.06949629 -0.35789725 0.3273813 -0.0833429 0.4292459 -0.10458639 0.3106315 0.2247049 -0.36324066 -0.038954526 0.40391085 -0.057649374 0.2468059 -0.1446201 0.91936076 0.291943 0.4770666 -0.23883325 0.056479365 0.44715816 0.20506504 -0.3700888 0.3214801 -0.56949025 0.36376685 -0.18239304 -0.02412049 -0.048806228 -0.44781274 0.09476163 -0.567865 -0.12518992 -0.13118806 0.157837 -0.19614325 -0.041570127 0.3808135 -0.050451584 -0.24919361 -0.107802264 0.13290647 -0.021647545 -0.41099763 0.58975273 -0.31694812 -0.2617192 -0.54064304 -0.29122436 0.12448452 -0.86877483 0.274025
NATIONAL 0.09368124 -0.1218037 0.2500752 -0.6175065 0.5431568 0.26754734 0.5487965 -0.5061726 0.665599 0.19633013 -0.6382779 0.35211322 0.17656383 -0.3668118 0.3532008 0.051702917 0.53246665 0.22675718 -1.0165899 -0.05891527 -0.5417919 -0.08362827 -0.4187478 -0.13372613 -0.70528066 0.26634082 0.47031164 -0.06603622 0.0049073654 -0.24686633 0.37145802 0.3894619 0.5903751 0.7801216 -0.24103312 -0.0839902 0.026525863 -0.23540321 0.28231132 -0.07892903 0.56685287 -0.2536982 0.1941108 -0.34543663 0.24076778 0.48493007 0.4265649 0.18097611 -0.0798242 -0.32717583 0.15373571 -0.20797132 -0.025216991 0.030591035 0.028401647 0.24658258 -0.03546723 -0.37356618 -0.1694207 0.26309022 -0.110055976 0.47581536 -0.60606796 0.67226607 0.26194128 0.82825613 -0.16147305 0.01603321 0.5117299 -0.05402734 -0.51880145 0.4523821 -0.38781866 0.12144885 -0.11283615 0.05221267 -0.34703785 -0.5204764 0.41997388 -0.48075014 -0.5564146 0.51074463 -0.053586304 -0.16480865 -0.07232986 0.46554327 -0.37854105 -1.1378361 -0.100415915 0.07475422 0.18970986 -0.6160045 0.65395135 -0.2910898 -0.17154264 -0.7629795 -0.4681305 0.06280024 -0.53274864 0.35244513
NEW 0.07573257 -0.12809369 0.11295283 -0.38150388 0.2555096 -0.028320525 0.16977291 -0.12274617 0.2861241 -0.082513146 -0.21104276 0.12668297 -0.092148475 -0.28423715 0.291955 -0.058940355 0.5055085 0.18004483 -0.3641935 0.082905725 -0.23383932 0.15092063 -0.2214206 0.028034996 -0.2021987 0.5211761 0.21866332 0.15537286 0.16820431 -0.11709988 0.14999703 0.14581616 0.36139446 0.36385974 0.077171996 -0.2181117 0.11816536 -0.22798082 -0.06527017 0.041689526 0.25342247 -0.1005873 0.023734527 -0.33399305 -0.08027 0.19490324 0.1497304 -0.15067303 -0.28784093 -0.15500313 -0.06161953 -0.006591524 0.15415372 0.32260978 0.029410519 0.37076932 0.2835446 -0.19817376 -0.033340964 0.5628501 -0.041027714 0.08207943 -0.36921164 0.52315885 0.34735897 0.25472108 -0.16447343 -0.29241467 0.26740456 -0.15824655 -0.31242436 0.036254324 -0.18357581 0.07985251 -0.09741431 0.0032187235 0.013553169 -0.33230594 0.078989975 -0.15114939 -0.1524844 0.14166524 0.15600698 -0.07181015 -0.17706951 0.23786211 -0.20795502 -0.37233406 -0.22552158 0.089071296 -0.019352527 -0.4682075 0.30970514 -0.1643009 -0.08071999 -0.11013363 -0.48637816 0.052054837 -0.4479327 0.3134025
